tree
version=v4
num_class=1
num_tree_per_iteration=1
label_index=0
max_feature_idx=503
objective=binary sigmoid:1
feature_names=user_segment user_city user_dietary_preference user_rfm_recency user_rfm_frequency user_rfm_monetary user_order_count user_avg_order_value item_price item_category item_subcategory item_cuisine_tag item_veg_flag item_bestseller_flag item_availability item_margin_pct item_prep_time_mins item_popularity_score item_item_pop_breakfast item_item_pop_lunch item_item_pop_dinner item_item_pop_late_night rest_city rest_zone rest_primary_cuisine rest_price_tier rest_rating rest_avg_prep_time rest_free_delivery_min rest_restaurant_addon_success_rate item_emb_0 item_emb_1 item_emb_2 item_emb_3 item_emb_4 item_emb_5 item_emb_6 item_emb_7 item_emb_8 item_emb_9 item_emb_10 item_emb_11 item_emb_12 item_emb_13 item_emb_14 item_emb_15 item_emb_16 item_emb_17 item_emb_18 item_emb_19 item_emb_20 item_emb_21 item_emb_22 item_emb_23 item_emb_24 item_emb_25 item_emb_26 item_emb_27 item_emb_28 item_emb_29 item_emb_30 item_emb_31 item_emb_32 item_emb_33 item_emb_34 item_emb_35 item_emb_36 item_emb_37 item_emb_38 item_emb_39 item_emb_40 item_emb_41 item_emb_42 item_emb_43 item_emb_44 item_emb_45 item_emb_46 item_emb_47 item_emb_48 item_emb_49 item_emb_50 item_emb_51 item_emb_52 item_emb_53 item_emb_54 item_emb_55 item_emb_56 item_emb_57 item_emb_58 item_emb_59 item_emb_60 item_emb_61 item_emb_62 item_emb_63 item_emb_64 item_emb_65 item_emb_66 item_emb_67 item_emb_68 item_emb_69 item_emb_70 item_emb_71 item_emb_72 item_emb_73 item_emb_74 item_emb_75 item_emb_76 item_emb_77 item_emb_78 item_emb_79 item_emb_80 item_emb_81 item_emb_82 item_emb_83 item_emb_84 item_emb_85 item_emb_86 item_emb_87 item_emb_88 item_emb_89 item_emb_90 item_emb_91 item_emb_92 item_emb_93 item_emb_94 item_emb_95 item_emb_96 item_emb_97 item_emb_98 item_emb_99 item_emb_100 item_emb_101 item_emb_102 item_emb_103 item_emb_104 item_emb_105 item_emb_106 item_emb_107 item_emb_108 item_emb_109 item_emb_110 item_emb_111 item_emb_112 item_emb_113 item_emb_114 item_emb_115 item_emb_116 item_emb_117 item_emb_118 item_emb_119 item_emb_120 item_emb_121 item_emb_122 item_emb_123 item_emb_124 item_emb_125 item_emb_126 item_emb_127 item_emb_128 item_emb_129 item_emb_130 item_emb_131 item_emb_132 item_emb_133 item_emb_134 item_emb_135 item_emb_136 item_emb_137 item_emb_138 item_emb_139 item_emb_140 item_emb_141 item_emb_142 item_emb_143 item_emb_144 item_emb_145 item_emb_146 item_emb_147 item_emb_148 item_emb_149 item_emb_150 item_emb_151 item_emb_152 item_emb_153 item_emb_154 item_emb_155 item_emb_156 item_emb_157 item_emb_158 item_emb_159 item_emb_160 item_emb_161 item_emb_162 item_emb_163 item_emb_164 item_emb_165 item_emb_166 item_emb_167 item_emb_168 item_emb_169 item_emb_170 item_emb_171 item_emb_172 item_emb_173 item_emb_174 item_emb_175 item_emb_176 item_emb_177 item_emb_178 item_emb_179 item_emb_180 item_emb_181 item_emb_182 item_emb_183 item_emb_184 item_emb_185 item_emb_186 item_emb_187 item_emb_188 item_emb_189 item_emb_190 item_emb_191 item_emb_192 item_emb_193 item_emb_194 item_emb_195 item_emb_196 item_emb_197 item_emb_198 item_emb_199 item_emb_200 item_emb_201 item_emb_202 item_emb_203 item_emb_204 item_emb_205 item_emb_206 item_emb_207 item_emb_208 item_emb_209 item_emb_210 item_emb_211 item_emb_212 item_emb_213 item_emb_214 item_emb_215 item_emb_216 item_emb_217 item_emb_218 item_emb_219 item_emb_220 item_emb_221 item_emb_222 item_emb_223 item_emb_224 item_emb_225 item_emb_226 item_emb_227 item_emb_228 item_emb_229 item_emb_230 item_emb_231 item_emb_232 item_emb_233 item_emb_234 item_emb_235 item_emb_236 item_emb_237 item_emb_238 item_emb_239 item_emb_240 item_emb_241 item_emb_242 item_emb_243 item_emb_244 item_emb_245 item_emb_246 item_emb_247 item_emb_248 item_emb_249 item_emb_250 item_emb_251 item_emb_252 item_emb_253 item_emb_254 item_emb_255 item_emb_256 item_emb_257 item_emb_258 item_emb_259 item_emb_260 item_emb_261 item_emb_262 item_emb_263 item_emb_264 item_emb_265 item_emb_266 item_emb_267 item_emb_268 item_emb_269 item_emb_270 item_emb_271 item_emb_272 item_emb_273 item_emb_274 item_emb_275 item_emb_276 item_emb_277 item_emb_278 item_emb_279 item_emb_280 item_emb_281 item_emb_282 item_emb_283 item_emb_284 item_emb_285 item_emb_286 item_emb_287 item_emb_288 item_emb_289 item_emb_290 item_emb_291 item_emb_292 item_emb_293 item_emb_294 item_emb_295 item_emb_296 item_emb_297 item_emb_298 item_emb_299 item_emb_300 item_emb_301 item_emb_302 item_emb_303 item_emb_304 item_emb_305 item_emb_306 item_emb_307 item_emb_308 item_emb_309 item_emb_310 item_emb_311 item_emb_312 item_emb_313 item_emb_314 item_emb_315 item_emb_316 item_emb_317 item_emb_318 item_emb_319 item_emb_320 item_emb_321 item_emb_322 item_emb_323 item_emb_324 item_emb_325 item_emb_326 item_emb_327 item_emb_328 item_emb_329 item_emb_330 item_emb_331 item_emb_332 item_emb_333 item_emb_334 item_emb_335 item_emb_336 item_emb_337 item_emb_338 item_emb_339 item_emb_340 item_emb_341 item_emb_342 item_emb_343 item_emb_344 item_emb_345 item_emb_346 item_emb_347 item_emb_348 item_emb_349 item_emb_350 item_emb_351 item_emb_352 item_emb_353 item_emb_354 item_emb_355 item_emb_356 item_emb_357 item_emb_358 item_emb_359 item_emb_360 item_emb_361 item_emb_362 item_emb_363 item_emb_364 item_emb_365 item_emb_366 item_emb_367 item_emb_368 item_emb_369 item_emb_370 item_emb_371 item_emb_372 item_emb_373 item_emb_374 item_emb_375 item_emb_376 item_emb_377 item_emb_378 item_emb_379 item_emb_380 item_emb_381 item_emb_382 item_emb_383 cart_size cart_total_value cart_stage time_since_last_add_sec consecutive_rejections complement_score peak_hour_mode season_bucket profile_veg_day_flag abandonment_risk_score gap_missing_beverage gap_missing_dessert gap_missing_bread candidate_fills_beverage_gap candidate_fills_dessert_gap candidate_fills_bread_gap price_anchor_ratio price_anchor_diff dtd_gap dtd_closes_gap dtd_overshoot dtd_free_delivery_unlock dtd_nudge_urgency seasonal_bev_weight seasonal_dessert_weight seasonal_candidate_boost gru_h_0 gru_h_1 gru_h_2 gru_h_3 gru_h_4 gru_h_5 gru_h_6 gru_h_7 gru_h_8 gru_h_9 gru_h_10 gru_h_11 gru_h_12 gru_h_13 gru_h_14 gru_h_15 gru_h_16 gru_h_17 gru_h_18 gru_h_19 gru_h_20 gru_h_21 gru_h_22 gru_h_23 gru_h_24 gru_h_25 gru_h_26 gru_h_27 gru_h_28 gru_h_29 gru_h_30 gru_h_31 gru_h_32 gru_h_33 gru_h_34 gru_h_35 gru_h_36 gru_h_37 gru_h_38 gru_h_39 gru_h_40 gru_h_41 gru_h_42 gru_h_43 gru_h_44 gru_h_45 gru_h_46 gru_h_47 gru_h_48 gru_h_49 gru_h_50 gru_h_51 gru_h_52 gru_h_53 gru_h_54 gru_h_55 gru_h_56 gru_h_57 gru_h_58 gru_h_59 gru_h_60 gru_h_61 gru_h_62 gru_h_63
feature_infos=[0:4] [0:9] [0:3] [1:44] [1:29] [150:1499] [1:49] [150:1199] [11:881] [0:8] [0:71] [0:9] [0:1] [0:1] none [5:65] [5:45] [0.10000000000000001:1] [0:0.40000000000000002] [0.29999999999999999:1] [0.29999999999999999:1] [0.10000000000000001:0.59999999999999998] [0:9] [0:4] [0:9] [0:2] [2.6000000000000001:5] [10:50] [0:299] [0.079236082893132803:0.12123613312202849] [-0.15662384033203119:0.078331708908080999] [-0.1018838360905647:0.1362655907869339] [-0.096598461270332295:0.089203566312789903] [-0.065448857843875802:0.1649453192949295] [-0.15849988162517539:0.082726776599884005] [-0.088903121650218894:0.1037198528647422] [-0.0617068260908126:0.1487547159194946] [-0.1342789828777313:0.1010472550988197] [-0.083248831331729806:0.091376304626464802] [-0.1530390381813049:0.094930626451969105] [-0.069019898772239602:0.1387908309698104] [-0.16853030025959009:0.098442316055297796] [-0.1334624290466308:0.075408697128295898] [-0.12997855246067039:0.084208324551582295] [-0.13738688826560971:0.1001139357686042] [-0.1182096302509307:0.1197944432497024] [-0.074804425239562905:0.16967719793319699] [-0.082003325223922702:0.084795340895652702] [-0.11608187109231941:0.13263422250747681] [-0.1734601557254791:0.056758452206850003] [-0.13534790277481079:0.11451352387666699] [-0.1502909511327743:0.1292325407266616] [-0.068623721599578802:0.1130285263061523] [-0.065042205154895699:0.12653298676013941] [-0.1058891490101814:0.13592767715454099] [-0.098829165101051303:0.1645599156618118] [-0.040691696107387501:0.1161535829305648] [-0.089975833892822196:0.1030074208974838] [-0.1451734453439712:0.063166335225105202] [-0.18980149924755091:0.0514430403709411] [-0.074445821344852406:0.1099460422992706] [-0.099139250814914703:0.148756518959999] [-0.1126864328980445:0.14397312700748441] [-0.11577267199754709:0.1009576469659805] [-0.13668400049209589:0.089920192956924397] [-0.1194996684789657:0.074928656220436096] [-0.13258820772171021:0.14230366051197049] [-0.19008378684520719:0.080095306038856506] [-0.072812274098396301:0.1423380374908447] [-0.089919589459896004:0.091893427073955494] [-0.1011683642864227:0.1213095858693122] [-0.15003733336925501:0.096779495477676294] [-0.086613915860652896:0.14375095069408411] [-0.1198169514536857:0.094567716121673501] [-0.079355470836162498:0.14153042435646049] [-0.1082216277718544:0.10447812080383299] [-0.13283945620059959:0.084149338304996393] [-0.094088345766067505:0.1242955476045608] [-0.062645979225635501:0.1175160706043243] [-0.1539735347032547:0.083661146461963598] [-0.1299669593572616:0.090029820799827506] [-0.17819833755493161:0.065311454236507402] [-0.13788494467735291:0.056193497031927102] [-0.089604184031486497:0.12810365855693809] [-0.099667243659496293:0.16780515015125269] [-0.16924674808979029:0.1219788044691085] [-0.18782855570316309:0.054984513670206001] [-0.1452508419752121:0.091357879340648596] [-0.1164833083748817:0.099604062736034393] [-0.069793164730071994:0.14317439496517179] [-0.15398898720741269:0.081739373505115495] [-0.1137367263436317:0.1270938962697982] [-0.098796240985393496:0.087774217128753607] [-0.10537465661764139:0.1622983962297439] [-0.16912055015563959:0.13190238177776331] [-0.14903514087200159:0.1001955792307853] [-0.1477533876895904:0.059770472347736303] [-0.072522796690464006:0.1295663565397262] [-0.1363522410392761:0.1112086772918701] [-0.096006333827972398:0.1326253116130828] [-0.11487337946891781:0.086318925023078905] [-0.091707229614257799:0.1207397133111953] [-0.145396813750267:0.12587350606918329] [-0.085480175912380205:0.13014960289001459] [-0.154083251953125:0.063884936273097895] [-0.15537650883197779:0.1008513644337654] [-0.038819245994090999:0.14313852787017819] [-0.15735793113708491:0.057466968894004801] [-0.14632120728492731:0.10318984091281889] [-0.14151597023010251:0.1730181276798248] [-0.17291200160980219:0.064057655632495797] [-0.1038184612989425:0.12230471521615981] [-0.16135317087173459:0.1130162551999092] [-0.087791375815868294:0.10850907117128369] [-0.1153498962521553:0.079938039183616597] [-0.1157744601368904:0.10414111614227289] [-0.11752037703990929:0.14592155814170829] [-0.11834078282117839:0.1249754652380943] [-0.1004223898053169:0.085842512547969804] [-0.13372053205966949:0.1164914816617965] [-0.1040199920535087:0.13365025818347931] [-0.076848559081554399:0.1114529594779014] [-0.087394326925277696:0.1084180325269699] [-0.10449996590614311:0.14501954615116119] [-0.13898010551929471:0.093533575534820501] [-0.1158308088779449:0.11028106510639191] [-0.11591402441263191:0.10485453903675079] [-0.17636740207672119:0.063712887465953799] [-0.16261951625347129:0.084449425339698694] [-0.048399925231933497:0.1217503920197486] [-0.086936242878437001:0.091488137841224601] [-0.083217270672321306:0.1446520984172821] [-0.14133405685424799:0.18633578717708579] [-0.1433607935905456:0.068298615515232003] [-0.16032508015632629:0.1322241872549057] [-0.087122954428195898:0.11364848911762231] [-0.11303585022687911:0.135211631655693] [-0.12589457631111139:0.10786699503660201] [-0.079190328717231695:0.1736966520547866] [-0.084848508238792406:0.12509573996067039] [-0.1226167306303978:0.1085742339491844] [-0.093795560300350106:0.1201885640621185] [-0.19588483870029449:0.086429849267005907] [-0.17547343671321869:0.087869577109813607] [-0.16032092273235321:0.065690726041793795] [-0.12212545424699781:0.11000779271125791] [-0.071065768599510096:0.18411046266555781] [-0.13066144287586209:0.1321642994880676] [-0.1293034553527832:0.1003258153796196] [-0.12940420210361481:0.1095170304179191] [-0.13239194452762601:0.088231950998306205] [-0.11551033705472941:0.1136256530880928] [-0.1065941751003265:0.13693894445896149] [-0.1046380698680877:0.10875314474105829] [-0.17717774212360379:0.077259860932826996] [-0.12904007732868189:0.10060641169548031] [-0.065621063113212502:0.1332451850175857] [-2.6756885266745078e-33:5.8135704118328001e-33] [-0.13126166164875031:0.080013267695903695] [-0.1291308850049972:0.1414251625537872] [-0.0875703990459442:0.1223885342478752] [-0.094130747020244598:0.15211215615272519] [-0.077804692089557606:0.18100152909755701] [-0.1021400839090347:0.11934623867273331] [-0.11454017460346221:0.086222834885120295] [-0.16805528104305259:0.097627155482768999] [-0.1410575807094574:0.1003104299306869] [-0.14187696576118469:0.1267361044883728] [-0.12778450548648829:0.1037139892578125] [-0.13005442917346949:0.090382605791091905] [-0.16944392025470731:0.045708145946264198] [-0.1013109982013702:0.1109898090362548] [-0.083936400711536394:0.1266772598028183] [-0.1568837016820907:0.088846132159233093] [-0.1099577099084854:0.1033940464258194] [-0.076924212276935494:0.1577155590057373] [-0.083968318998813601:0.14715741574764249] [-0.10300757735967631:0.082415662705898202] [-0.1493881940841674:0.068020053207874298] [-0.10910673439502711:0.19503886997699729] [-0.084818154573440496:0.13627408444881439] [-0.15957382321357719:0.1322624683380127] [-0.12802398204803461:0.076563939452171298] [-0.15992046892642969:0.11171892285346979] [-0.1157435625791549:0.1417272537946701] [-0.19710543751716611:0.054392941296100603] [-0.1470670402050018:0.15320950746536249] [-0.040574725717306102:0.079030901193618705] [-0.069099754095077501:0.19306699931621549] [-0.1001297309994697:0.1301395446062088] [-0.1088405922055244:0.097061291337013203] [-0.085499823093414307:0.089901976287364904] [-0.15233244001865379:0.056226044893264701] [-0.1194958463311195:0.14100289344787589] [-0.16467650234699249:0.059174131602048798] [-0.107561357319355:0.048374641686677898] [-0.1171540766954422:0.094685107469558702] [-0.066910810768604195:0.13960370421409601] [-0.11432475596666331:0.13646930456161499] [-0.12536706030368799:0.1238600686192512] [-0.1336514204740524:0.1300232857465744] [-0.091023549437522805:0.1385437548160553] [-0.14759442210197449:0.056325264275073998] [-0.11053143441677089:0.1443816125392913] [-0.15217466652393341:0.112014353275299] [-0.064172945916652596:0.16408936679363251] [-0.078357465565204606:0.1564453840255737] [-0.089050538837909698:0.14770177006721491] [-0.10632519423961639:0.1098550632596015] [-0.087042585015296894:0.077231802046298897] [-0.15372481942176819:0.1489089280366897] [-0.0734671279788017:0.10840098559856411] [-0.13474597036838529:0.0709130614995956] [-0.1039707958698272:0.095131427049636799] [-0.050508491694927202:0.13709217309951779] [-0.119902066886425:0.1130940690636634] [-0.079079322516918099:0.1204076632857322] [-0.095977641642093603:0.12265112996101379] [-0.1124263256788253:0.11754760891199111] [-0.089316032826900399:0.15320904552936551] [-0.1779653578996658:0.087909869849681799] [-0.1241596415638923:0.094111137092113495] [-0.20087598264217371:0.1093287169933319] [-0.1384749710559845:0.1223519220948219] [-0.14772669970989219:0.066835656762123094] [-0.15418742597103119:0.080465324223041507] [-0.093964539468288394:0.13146847486495969] [-0.1336620897054672:0.080884486436843803] [-0.1137153580784797:0.1174460723996162] [-0.18225179612636561:0.1216556951403617] [-0.1029575318098068:0.16389727592468259] [-0.1281891912221908:0.093502447009086595] [-0.1083154380321502:0.11088034510612479] [-0.10983981192111961:0.074930824339389801] [-0.12159208208322519:0.13167925179004669] [-0.1067138761281967:0.1226996183395385] [-0.1007573381066322:0.14617231488227839] [-0.12543684244155881:0.0949288010597229] [-0.12563815712928769:0.13924239575862879] [-0.12592802941799161:0.11082529276609419] [-0.1024440079927444:0.12640427052974701] [-0.088240563869476304:0.17197474837303159] [-0.13624958693981171:0.060259155929088502] [-0.048751372843980699:0.13601531088352201] [-0.18833743035793299:0.040667124092578798] [-0.1237795874476432:0.1384218484163284] [-0.078471481800079304:0.16755042970180509] [-0.1099845021963119:0.1238309666514396] [-0.19892939925193781:0.0767368003726005] [-0.14199632406234741:0.095236808061599704] [-0.0699899271130561:0.14831146597862241] [-0.1201129034161567:0.14175975322723389] [-0.15866111218929291:0.090340323746204307] [-4.6119492296955481e-33:1.8331125431043237e-33] [-0.12699776887893671:0.1364131867885589] [-0.14229774475097651:0.0726172029972076] [-0.16448479890823359:0.094509094953536904] [-0.020716767758130999:0.2110407799482345] [-0.062157727777957902:0.16595481336116791] [-0.1373559087514877:0.075021117925643893] [-0.1120645180344581:0.1208157688379287] [-0.108082890510559:0.1013459116220474] [-0.16556720435619349:0.142232060432434] [-0.14268161356449119:0.091000899672508198] [-0.12155856192111961:0.1455824077129364] [-0.16822181642055509:0.069255068898200906] [-0.078048966825008295:0.1555012166500091] [-0.1241804286837577:0.12849275767803189] [-0.1109572201967239:0.10010131448507301] [-0.043567579239606802:0.1907297819852829] [-0.097658298909664099:0.18932706117629999] [-0.051477313041686998:0.20045527815818781] [-0.097852297127246801:0.1075527071952819] [-0.1380596905946731:0.12327384203672399] [-0.1494089812040329:0.053758457303047097] [-0.096052572131156894:0.19543065130710599] [-0.1210139021277427:0.1292310506105423] [-0.077009186148643494:0.19799377024173731] [-0.098541811108589103:0.1103254556655883] [-0.050436589866876602:0.14820098876953119] [-0.088982887566089602:0.15499608218669891] [-0.071835808455944006:0.1510370671749115] [-0.19429671764373779:0.1026750430464744] [-0.1162160411477088:0.1054265797138214] [-0.109112948179245:0.16073939204216001] [-0.1946877837181091:0.025404796004295301] [-0.1242702007293701:0.10120751708745949] [-0.17314344644546509:0.097762435674667303] [-0.1158052235841751:0.1077902093529701] [-0.1092270910739898:0.2191037982702255] [-0.1090188324451446:0.1220316439867019] [-0.16282036900520319:0.089247226715087793] [-0.12424171715974799:0.1174234375357627] [-0.091171175241470295:0.13980776071548459] [-0.099884286522865295:0.1137252375483512] [-0.096584498882293701:0.1279767155647277] [-0.084674090147018405:0.12751016020774841] [-0.036357585340738199:0.22540321946144101] [-0.091187663376331302:0.1198690310120582] [-0.13068185746669769:0.071256950497627203] [-0.1453979611396789:0.1187756359577179] [-0.1699750870466232:0.13788384199142451] [-0.13877458870410919:0.081568174064159393] [-0.10082812607288361:0.1689075380563736] [-0.10371819883584971:0.1156281307339668] [-0.17238794267177579:0.095113441348075797] [-0.14636602997779841:0.095097817480564104] [-0.1182128563523292:0.1138674542307853] [-0.11294014006853099:0.13072292506694791] [-0.082506701350212097:0.1239860355854034] [-0.1694736033678054:0.1192341968417167] [-0.1191473826766014:0.0816000625491142] [-0.1780551522970199:0.11820529401302329] [-0.11724956333637231:0.091411776840686798] [-0.1208622828125953:0.095091849565505898] [-0.090868555009364999:0.10651484131813049] [-0.12431053817272179:0.1165505349636077] [-0.13047732412815091:0.12626172602176661] [-0.0713257417082786:0.1651998162269592] [-0.078648105263709994:0.12690749764442441] [-0.13139641284942619:0.161791130900383] [-0.146620437502861:0.103119172155857] [-0.132588505744934:0.1286613047122955] [-0.14830014109611511:0.11359807848930351] [-0.1120069548487663:0.1481991112232208] [-0.1032223850488662:0.1322341114282608] [-0.1308244913816452:0.14244513213634491] [-0.15339893102645871:0.12609364092350001] [-0.1089765653014183:0.13178902864456171] [-0.1175477057695388:0.13113792240619659] [-0.1263363361358642:0.11510492116212841] [-0.13195273280143729:0.12939848005771629] [-0.10375532507896421:0.1533520370721817] [-0.13625790178775779:0.15785917639732361] [-0.1582130938768386:0.0828308016061782] [-0.1269047856330871:0.1282784640789032] [-0.113221138715744:0.098147898912429796] [-0.054527439177036202:0.14106869697570801] [-0.14129465818405151:0.1220252215862274] [-0.15873435139656061:0.12894527614116669] [-0.14820666611194611:0.1458103209733963] [-0.090109497308730996:0.1652208119630813] [-0.066263966262340504:0.15167085826396939] [-0.1017611846327781:0.1155522763729095] [-0.10347374528646459:0.10599230974912641] [-0.083849251270294106:0.1258167028427124] [-0.1398007869720459:0.1746850460767746] [-0.1209647580981254:0.17134480178356171] [-0.0897967293858528:0.16930021345615379] [-3.0941247786131498e-08:-1.3485156102888141e-08] [-0.099961377680301597:0.15598645806312561] [-0.14903891086578369:0.1183747574687004] [-0.1394158452749252:0.1018403396010398] [-0.032356578856706598:0.18236786127090451] [-0.1214319169521331:0.12705878913402549] [-0.1668476313352584:0.091223195195198004] [-0.1179955303668975:0.1014350652694702] [-0.10914748907089231:0.088728658854961395] [-0.084019258618354797:0.13200666010379791] [-0.12835448980331421:0.1593510955572128] [-0.14116369187831879:0.099687300622463199] [-0.035905994474887799:0.1986094713211059] [-0.1141742244362831:0.094835355877876198] [-0.078207217156886999:0.11402285844087599] [-0.14084021747112269:0.1507270485162735] [-0.10862056165933601:0.10268039256334301] [-0.099725887179374695:0.1371347159147262] [-0.072100088000297505:0.15114371478557581] [-0.089626595377922003:0.048397656530141803] [-0.1252110749483108:0.13438205420970911] [-0.093906983733177102:0.14052189886569971] [-0.063656456768512698:0.10921873152256011] [-0.072553016245365101:0.18273800611495969] [-0.14875179529190061:0.088900193572044303] [-0.0991730317473411:0.0954924076795578] [-0.077491454780101707:0.15407782793045041] [-0.12650670111179349:0.087526135146617806] [-0.086460120975971194:0.19230945408344269] [-0.081190444529056494:0.186340257525444] [-0.1078515872359275:0.13125722110271451] [-0.1199013292789459:0.13349595665931699] [-0.095004491508006994:0.1518931835889816] [-0.15904915332794189:0.081348851323127705] [-0.1193385869264602:0.079297706484794603] [-0.16604387760162351:0.15669602155685419] [-0.10285615921020499:0.1067074388265609] [-0.14646521210670471:0.1017196848988533] [-0.088968127965927096:0.1089694797992706] [-0.14565972983837119:0.074873514473438194] [-0.1205255314707756:0.084002479910850497] [-0.16812619566917419:0.095536768436431801] [-0.15739387273788449:0.0575361736118793] [-0.1081712171435356:0.094320036470890004] [-0.092124961316585499:0.0519608184695243] [-0.1883540004491806:0.063475877046585] [-0.14570058882236481:0.11846964061260221] [-0.15701809525489799:0.10708034783601759] [-0.1053390130400657:0.1276695728302002] [-0.128017172217369:0.086493842303752899] [-0.1110170409083366:0.18018035590648651] [-0.14292539656162259:0.079069152474403298] [-0.066681377589702606:0.1123168393969535] [-0.063454255461692796:0.1585502028465271] [-0.059277862310409497:0.1328696608543396] [-0.084191605448722798:0.12338611483573909] [-0.103377029299736:0.11093470454216001] [-0.082833006978034904:0.1055512502789497] [-0.090280875563621493:0.14979609847068781] [-0.2033430188894271:0.14976847171783439] [-0.1046235039830207:0.1146243140101432] [-0.1028718426823616:0.18956086039543149] [-0.12129189819097511:0.13133284449577329] [-0.13602828979492179:0.15848785638809201] [-0.13583163917064661:0.10640537738800041] [1:9] [24:2166] [1:3] [10:164] [0:20] [0:1] [0:3] none [0:1] [0.089999999999999997:0.78400000000000003] [0:1] [0:1] [0:1] [0:1] [0:1] [0:1] [0.0398009950248756:8.7916666666666661] [-818:599] [0:572] [0:1] [0:1] [0:1] [0:0.94799999999999995] none none [-0.20000000000000001:0.29999999999999999] [-0.2012394517660141:0.026348590850830078] [-0.036319844424724579:0.25649160146713257] [-0.043583732098340988:0.2445017546415329] [-0.10812827944755554:0.18890048563480377] [-0.025548908859491348:0.22225850820541382] [-0.098693057894706726:0.09530184417963028] [-0.30153888463973999:-0.0087091587483882904] [-0.29586511850357056:0.042617473751306534] [-0.25546014308929443:0.0055049844086170197] [-0.1485985666513443:0.27088308334350586] [-0.02803141251206398:0.18721334636211395] [-0.29004663228988647:-0.039469107985496521] [-0.21640999615192413:-0.0097503811120986938] [-0.18913346529006958:0.07494199275970459] [-0.032004129141569138:0.21017211675643921] [0.016535211354494095:0.330436110496521] [-0.18878208100795746:0.081782720983028412] [-0.25221952795982361:-0.027324818074703217] [-0.034631721675395966:0.20933349430561066] [-0.2239859402179718:0.14764901995658875] [-0.052754703909158707:0.2238580584526062] [-0.020428437739610672:0.2509675920009613] [-0.27555277943611145:-0.043667946010828018] [-0.21421858668327332:0.08748723566532135] [-0.30423867702484131:-0.02663186751306057] [-0.10078593343496323:0.11769100278615952] [-0.13897907733917236:0.014166079461574554] [-0.071838714182376862:0.20014090836048126] [-0.11163383722305298:0.12196402251720428] [-0.20585739612579346:0.19408296048641205] [0.093541145324707031:0.4307856559753418] [-0.21221901476383209:0.17060033977031708] [-0.067800551652908325:0.23485490679740906] [-0.17310239374637604:0.1002950593829155] [-0.023325175046920776:0.23885700106620789] [0.09650382399559021:0.41009265184402466] [-0.0052587017416954041:0.3138890266418457] [-0.17637613415718079:0.070028103888034821] [0.029870150610804558:0.26007243990898132] [-0.20205900073051453:0.088452637195587158] [0.0011868865694850683:0.30394446849822998] [-0.13723507523536682:0.078291147947311401] [-0.12153929471969604:0.13801488280296326] [-0.12880074977874756:0.17840710282325745] [-0.21789634227752686:0.060284145176410675] [-0.091685876250267029:0.1875876784324646] [-0.11415956169366837:0.16109129786491394] [-0.34890392422676086:-0.015050956979393959] [-0.28246867656707764:0.0057909712195396423] [-0.13565987348556519:0.15580198168754578] [-0.21749208867549896:0.0092325173318386078] [-0.17558269202709198:0.035616155713796616] [-0.17379021644592285:0.14572572708129883] [-0.10879084467887878:0.19294166564941406] [-0.054305654019117355:0.16018566489219666] [-0.2392486035823822:0.038976091891527176] [-0.10433937609195709:0.058917790651321411] [-0.10132285952568054:0.13395383954048157] [-0.040086094290018082:0.19769735634326935] [-0.018360916525125504:0.18780815601348877] [-0.015381084755063057:0.2138192355632782] [-0.026543483138084412:0.18394312262535095] [-0.31063956022262573:0.19681172072887421] [-0.097800418734550476:0.14223042130470276]
tree_sizes=6761 6793 6817

Tree=0
num_leaves=63
num_cat=0
split_feature=9 429 416 9 416 229 9 120 116 358 356 9 30 89 13 10 416 416 8 66 466 10 451 476 496 447 373 482 313 44 492 344 7 418 503 402 13 452 13 452 494 26 499 450 501 442 430 499 465 499 17 16 471 7 483 443 482 480 241 430 485 458
split_gain=1899.43 972.457 869.116 747.311 704.278 1196.55 749.292 606.229 327.208 269.017 237.048 131.624 122.512 89.5142 68.3087 66.4293 65.2313 58.8634 54.5737 51.392 50.3407 49.4649 46.8169 44.6768 42.844 39.8962 38.6679 38.7631 51.7117 37.1695 36.9746 42.2402 44.5906 44.2633 35.8936 41.7797 35.7132 40.518 34.9509 34.5267 37.6138 47.2182 34.5018 34.2431 34.4534 33.5829 32.9143 32.565 32.7812 32.1121 30.3572 31.4451 30.2528 30.0299 38.9485 29.8492 29.7315 29.0908 34.3294 49.9794 28.3611 28.2995
threshold=5.5000000000000009 1.0000000180025095e-35 2.5000000000000004 7.5000000000000009 1.5000000000000002 0.008836931549012602 1.0000000180025095e-35 0.014011288993060552 0.053614696487784309 -0.0053645938169210984 0.070539932698011357 6.5000000000000009 0.013701784890145003 0.087736055254936163 1.0000000180025095e-35 3.5000000000000004 1.5000000000000002 1.5000000000000002 211.50000000000003 -0.10457064956426614 -0.034199470654129975 2.5000000000000004 -0.15022551268339154 0.21376462280750277 -0.0055099437013268462 -0.10462787747383116 0.009034004062414152 -0.0012502595782279966 -0.038314500823616947 0.075903039425611454 -0.050495687872171395 -0.011028312612324898 167.50000000000003 9.5000000000000018 0.0083044376224279421 1.0000000180025095e-35 1.0000000180025095e-35 -0.13492736965417859 1.0000000180025095e-35 -0.13880626112222669 0.058236155658960349 4.2500000000000009 0.097901802510023131 0.14045345038175586 0.048531316220760352 0.069408133625984206 1.4546920821114371 0.11830013617873193 -0.020612560212612149 0.084213506430387511 0.31500000000000006 25.500000000000004 -0.12411098182201384 299.50000000000006 0.039295971393585212 0.10784369707107545 0.057415200397372253 0.1687087565660477 -0.019684778526425296 0.20633600917431191 0.044638292863965041 0.063354954123497023
decision_type=2 2 2 2 2 2 2 2 2 2 2 2 2 2 2 2 2 2 2 2 2 2 2 2 2 2 2 2 2 2 2 2 2 2 2 2 2 2 2 2 2 2 2 2 2 2 2 2 2 2 2 2 2 2 2 2 2 2 2 2 2 2
left_child=1 4 3 11 6 8 -1 12 13 55 15 17 23 29 20 21 22 38 36 60 25 -8 34 30 47 26 27 28 -13 -6 -7 43 -33 -34 35 -3 -10 -38 -2 -27 -41 50 -22 44 -32 -31 -12 48 -16 -39 -42 -52 -29 54 -40 -9 -35 -24 -59 -60 -11 -50
right_child=2 16 -4 -5 5 7 10 9 18 19 46 14 -14 -15 24 -17 -18 -19 -20 -21 42 -23 57 -25 -26 39 -28 52 -30 45 31 32 33 56 -36 -37 37 49 53 40 41 -43 -44 -45 -46 -47 -48 -49 61 -51 51 -53 -54 -55 -56 -57 -58 58 59 -61 -62 -63
leaf_value=-2.5634394697860881 -2.5843451582604717 -2.6919357292339985 -2.8165851668152886 -2.8165851668152886 -2.8165851668152886 -2.5028135754504413 -2.8165851668152886 -2.3615022859724313 -2.5206470199827811 -2.7097427917456112 -2.6079164906228671 -1.6199505660349052 -2.8165851668152886 -2.5038757763674528 -1.9229943935052609 -2.8164195357716766 -2.8165851668152886 -2.8165851668152886 -2.8165851668152886 -2.8165851668152886 -2.3462805544529379 -2.5817667600687453 -2.4764924676481472 -2.587221242137407 -2.4638357380138145 -2.548483803286409 -2.6090223535830641 -2.0997072953800351 -2.560163466648063 -2.1327939663693543 -2.2922494773977129 -2.1092149594574257 -2.4942593484232658 -1.961846166257871 -2.7273950102353841 -2.3217362717557308 -2.5535885512591601 -1.8709164853475073 -2.3840666364127401 -2.4564772101639791 -2.6300966576027607 -1.8763722662021292 -2.7677429382120073 -1.961846166257871 -2.4466981139424879 -2.6950994205431682 -2.0839517377660735 -2.5589925913048339 -2.226629443604462 -2.4367011665675475 -2.1490747092371145 -2.5723740237988832 -2.5130957494924662 -2.5257976717802908 -1.7760333400497372 -2.6193377051481921 -2.4857184569220947 -2.6679349058487811 -1.5733284387317723 -2.3395215385971948 -2.1548517470289008 -2.4227787162966878
leaf_weight=134.31000265479088 83.534269943833351 5.6157492399215716 119.15917918458581 75.929609514772892 492.02152976021171 95.292244914919138 15.501807797700165 17.139734659343961 28.722217466682196 1.8719164133071893 49.839774504303932 1.1699477583169939 10.412535049021242 9.5935716181993467 2.5738850682973853 1811.2546220384538 6.4347126707434645 9.5935716181993467 5.2062675245106211 105.70477996394038 37.847809981554747 21.293049201369286 122.02555119246244 27.9032540358603 25.797348070889711 37.672317817807198 42.87858534231782 1.8134190253913391 1.1699477583169926 1.1699477583169926 27.84475664794445 3.3928484991192809 86.868621055036783 2.6908798441290847 13.454399220645426 6.6687022224068642 3.0418641716241837 2.7493772320449343 4.8552831970155266 169.11594846472144 3.2173563353717318 2.3398955166339865 2.0474085770547381 2.1059059649705878 30.009160000830889 11.523985419422386 1.2284451462328423 4.2703093178570262 21.527038753032684 1.5794294737279413 6.1422257311642152 2.4568902924656868 74.46717481687665 11.348493255674837 1.3454399220645425 6.0837283432483664 1.81341902539134 1.3454399220645425 1.2869425341486924 2.5153876803815365 1.81341902539134 11.173001091927288
leaf_count=2296 1428 96 2037 1298 8411 1629 265 293 491 32 852 20 178 164 44 30963 110 164 89 1807 647 364 2086 477 441 644 733 31 20 20 476 58 1485 46 230 114 52 47 83 2891 55 40 35 36 513 197 21 73 368 27 105 42 1273 194 23 104 31 23 22 43 31 191
internal_value=-2.71151 -2.74543 -2.56879 -2.52224 -2.75818 -2.68838 -2.7917 -2.56121 -2.78473 -2.73816 -2.80784 -2.48221 -2.47982 -2.80647 -2.45807 -2.81372 -2.50469 -2.57986 -2.51392 -2.80379 -2.47422 -2.6807 -2.49156 -2.46721 -2.36358 -2.4866 -2.53263 -2.49097 -2.09006 -2.81223 -2.45381 -2.42363 -2.46519 -2.47841 -2.61456 -2.49097 -2.47026 -2.27389 -2.55739 -2.46129 -2.44337 -2.28679 -2.36791 -2.35794 -2.37236 -2.64327 -2.59531 -2.29818 -2.2666 -2.07735 -2.36806 -2.27002 -2.50327 -2.4291 -2.25213 -2.42905 -2.17276 -2.46667 -2.23381 -2.08019 -2.4367 -2.29365
internal_weight=3922.78 3169.33 753.446 634.287 3009.98 976.555 2033.43 420.947 555.608 132.614 1899.12 558.358 288.334 514.309 447.681 1848.05 159.347 110.677 41.2992 109.39 382.339 36.7949 152.912 277.921 65.3416 342.444 121.499 78.6205 2.3399 504.715 250.018 154.726 94.7658 91.3729 25.7389 12.2845 36.0929 7.37067 101.083 220.945 183.272 14.1564 39.8952 59.9598 57.8539 12.6939 51.0682 39.5442 35.2739 4.32881 11.8165 8.59912 76.2806 17.5492 6.20072 23.2235 4.5043 127.173 5.14777 3.80233 3.68534 32.7
internal_count=67059 54179 12880 10843 51455 16694 34761 7196 9498 2267 32465 9545 4929 8792 7653 31592 2724 1892 706 1870 6536 629 2614 4751 1117 5854 2077 1344 40 8628 4274 2645 1620 1562 440 210 617 126 1728 3777 3133 242 682 1025 989 217 873 676 603 74 202 147 1304 300 106 397 77 2174 88 65 63 559
is_linear=0
shrinkage=1


Tree=1
num_leaves=63
num_cat=0
split_feature=9 429 416 229 9 416 9 408 358 356 37 182 47 36 354 149 416 443 5 476 7 499 497 503 472 432 7 19 4 503 469 422 417 308 135 430 493 417 493 491 502 456 485 480 495 495 458 470 21 303 415 26 499 283 482 431 20 441 4 415 368 470
split_gain=1371.02 699.137 615.606 876.489 629.043 573.537 460.537 385.851 256.716 208.428 187.516 85.3108 66.757 65.0002 61.2217 58.0845 40.0461 32.9811 30.5239 30.4398 29.8707 29.1091 27.4823 26.8219 25.6197 28.5083 26.8481 24.5853 25.7979 30.0263 26.1841 23.8026 31.0806 23.4168 29.2648 25.1542 23.2962 22.8026 26.3775 22.1646 21.9524 22.5075 21.117 22.498 24.0117 29.1356 23.9547 22.4336 26.2207 21.6036 21.073 20.9249 21.4497 28.4579 20.6198 24.7551 21.8675 20.5551 27.4275 20.5512 26.1642 36.1396
threshold=5.5000000000000009 1.0000000180025095e-35 1.5000000000000002 0.0021103238686918505 1.0000000180025095e-35 2.5000000000000004 7.5000000000000009 -0.006642903434112649 -0.0053645938169210984 0.070539932698011357 0.032270384952425908 -0.057770827785134295 0.032465230673551511 -0.016049866564571795 -0.017154569737613146 0.080411206930875709 1.5000000000000002 0.10794999077916147 1249.0000000000002 0.21376462280750277 259.50000000000006 0.10578489303588869 0.00089531578123569499 -0.037432523444294923 0.094765294343233122 272.50000000000006 227.50000000000003 0.46500000000000002 12.500000000000002 0.010713808238506319 0.0027868848992511634 1.0000000180025095e-35 24.500000000000004 0.041968666017055463 -0.033967675641179043 0.18830620605657974 0.027516223490238193 57.500000000000007 0.010310042183846237 -0.026647922582924363 -0.042597543448209756 -0.0066646309569478026 0.021814249455928806 0.12507313489913943 -0.11749257892370223 -0.065737232565879808 0.10342827066779138 0.2937722802162171 0.46500000000000002 0.056755494326353052 296.50000000000006 4.1500000000000012 0.055571278557181365 -0.023560160771012247 0.013302344828844072 -41.499999999999993 0.72500000000000009 0.13600807636976245 9.5000000000000018 81.500000000000014 -0.0012177034805062497 0.32569856941699987
decision_type=2 2 2 2 2 2 2 2 2 2 2 2 2 2 2 2 2 2 2 2 2 2 2 2 2 2 2 2 2 2 2 2 2 2 2 2 2 2 2 2 2 2 2 2 2 2 2 2 2 2 2 2 2 2 2 2 2 2 2 2 2 2
left_child=1 2 4 10 -1 6 14 13 39 15 -4 -10 18 -5 22 -6 24 21 23 42 -19 59 -2 36 25 27 31 28 51 30 -30 32 -26 34 -22 -35 -12 -23 -39 -9 41 -29 43 46 49 -46 47 48 -15 -45 -37 52 53 -3 55 -11 -57 -21 -59 -16 61 -61
right_child=5 16 3 7 9 -7 -8 8 11 54 12 -13 -14 19 17 -17 -18 20 -20 57 33 37 -24 -25 26 -27 -28 40 29 -31 -32 -33 -34 35 -36 50 -38 38 -40 -41 -42 -43 -44 44 45 -47 -48 -49 -50 -51 -52 -53 -54 -55 -56 56 -58 58 -60 60 -62 -63
leaf_value=0.11527188334267041 -0.00052251954591741082 0.80356308423253808 -0.10387010721221233 -0.1059809810947781 -0.10444200427784052 -0.1059809810947781 -0.1059809810947781 0.20611880079183226 0.17951631886342212 0.016139901241436383 0.19947255612077247 -0.1059809810947781 -0.1059809810947781 0.24658215603366582 0.30598997610967293 0.11512706329665855 -0.1059809810947781 0.066171739571172367 0.52233622258571255 0.057568985372288418 0.049209606789232009 0.094838407364143465 0.1260628372428875 0.10011616250170972 0.5106242683227229 0.05033172933523216 0.096268673151039222 0.031473966850473357 0.69673439956628902 -0.0018801810025602492 0.10575109759332146 0.49878329351578921 0.095229270040603345 -0.055991681547689909 0.18059168045461774 0.41698101307558899 0.67212390767056007 0.5828130154236405 0.084207654954914876 -0.0031348174430347363 0.21753144409101402 0.45103643444174574 0.17557898468863498 0.16001131235665114 0.033614041751053501 0.39585959599244225 0.66108000138271028 -0.053937434299432763 0.4947816646570744 0.65315623584303972 0.14824739330795203 0.69166840915487315 0.10886561195025407 0.22720004534136728 0.071197414393002964 0.70614179304891411 0.21767402294200544 0.60677701113276339 0.07159103195222756 0.21611408743849256 0.15836077882123389 0.60884705468198996
leaf_weight=152.48289710283279 19.567328162491322 1.6447967067360871 420.88527647033334 8.3601944185793382 1674.7836717180908 108.46952885761857 69.118040479719639 44.817863091826439 11.435734778642653 2.4289789199829102 3.2419491671025744 123.48592902347445 13.685159016400574 16.020164072513591 19.746384851634502 12.135390449315308 5.8574610576033583 38.921446200460196 2.0603981204330912 29.633247539401054 22.21543800458312 38.305216386914253 138.88098427280784 37.910384695976973 2.2617827206850043 11.971468344330786 73.766943760216236 12.094968546181915 1.6118825674057 3.7571346946060658 1.4015946984291074 2.9638015292584887 8.8456021063029748 1.9181505888700474 71.585993118584156 9.1358596608042699 1.5372909419238565 2.1705244258046141 2.075641393661499 5.7064009159803382 57.03815937042237 1.4297398589551367 256.3556212335825 1.8553942590951948 11.228461518883705 2.767600275576112 1.8189046010375012 1.8089757114648808 5.7964671850204459 1.7043540701270101 4.2873553186655036 2.4997205585241318 2.302736334502697 1.7878225073218335 50.351127162575722 1.5980124473571771 2.1489525660872459 1.679186932742595 2.2283251881599426 212.20779305696487 99.265203434973955 2.3692462369799605
leaf_count=2296 296 23 7882 157 31401 2037 1298 628 155 38 45 2319 257 212 257 191 110 546 29 445 316 533 2067 547 32 168 1056 167 21 53 20 41 127 28 997 129 22 31 29 81 793 20 3498 24 152 35 25 24 77 22 61 35 33 25 778 25 32 25 33 2847 1375 33
internal_value=-0.0026878 -0.0337435 -0.0459479 0.0172807 -0.0794984 0.10898 0.139996 0.106324 -0.00978368 -0.0965332 -0.0805644 -0.0817827 0.0872972 0.169419 0.164901 -0.102862 0.151456 0.181365 0.146404 0.176335 0.141386 0.197102 0.11043 0.12826 0.15959 0.194868 0.120415 0.21509 0.331326 0.18672 0.421863 0.247 0.179816 0.168208 0.149476 0.282743 0.351506 0.119211 0.339081 0.182485 0.190371 0.0758272 0.186457 0.251306 0.164225 0.105245 0.311389 0.284467 0.312526 0.396122 0.331148 0.450215 0.344979 0.503374 0.0923499 0.264801 0.425997 0.0859961 0.301578 0.207038 0.200812 0.22045
internal_weight=3953.43 3093.19 2901.95 1006.02 1895.93 860.24 751.771 526.703 185.446 1743.45 479.32 134.922 58.4352 341.257 682.653 1686.92 191.236 524.204 44.75 332.897 148.064 376.14 158.448 42.6896 185.378 97.54 87.8381 85.5686 15.0057 6.77061 3.01348 14.0712 11.1074 109.143 93.8014 15.3414 4.77924 42.5514 4.24617 50.5243 70.5629 13.5247 299.356 43.0003 17.5558 13.9961 25.4445 23.6256 21.8166 3.55975 13.4232 8.23508 5.73536 3.43262 56.5271 6.17594 3.74697 33.5408 3.90751 333.589 313.842 214.577
internal_count=67059 54179 51455 16694 34761 12880 10843 7912 3183 32465 8782 2474 900 4729 9545 31592 2724 7182 643 4572 2077 5105 2363 614 2614 1358 1256 1190 210 94 41 200 159 1531 1313 218 67 593 60 709 980 187 4069 571 233 187 338 313 289 46 190 116 81 48 873 95 57 503 58 4512 4255 2880
is_linear=0
shrinkage=0.1


Tree=2
num_leaves=63
num_cat=0
split_feature=9 9 416 9 429 416 9 185 356 293 229 439 416 416 416 30 9 473 151 37 416 159 485 455 455 474 27 463 423 15 423 481 445 447 476 449 6 15 423 13 490 447 417 403 417 490 423 503 446 20 417 451 30 416 479 501 127 474 416 15 423 23
split_gain=1037.55 570.549 412.534 317.069 266.436 357.696 476.641 377.1 229.733 186.841 141.628 92.1166 294.977 62.2637 56.5399 51.3864 37.4867 35.952 34.6333 30.6492 28.1179 25.3701 23.928 22.1455 21.962 21.8913 30.8063 24.8925 21.734 21.2879 22.8713 20.4101 18.9977 18.6345 18.445 46.3925 18.0542 21.2172 22.5313 17.7375 22.4631 17.4813 17.3396 17.291 17.1367 16.891 22.782 20.4585 16.4962 16.3967 17.0799 16.3942 16.0964 16.107 16.0516 15.9951 15.6569 17.253 15.672 35.4863 17.9509 23.9293
threshold=5.5000000000000009 2.5000000000000004 2.5000000000000004 7.5000000000000009 1.0000000180025095e-35 1.5000000000000002 1.0000000180025095e-35 -0.033092904835939345 0.070539932698011357 0.12148826569318767 0.065202336758375154 1.0000000180025095e-35 1.5000000000000002 1.5000000000000002 1.5000000000000002 0.033366065472364405 1.5000000000000002 0.054161317646503455 -0.026363459415733797 0.03564715385437011 1.5000000000000002 0.053027749061584452 0.096946828067302718 0.19947739690542224 0.12275742739439012 0.02827924303710461 33.500000000000007 -0.0077365131583064786 0.69950000000000012 41.550000000000004 0.36050000000000004 0.060489859431982047 -0.043899537995457642 -0.10462787747383116 0.13987564295530322 0.023773356340825561 18.500000000000004 24.050000000000004 0.34550000000000008 1.0000000180025095e-35 -0.15166807174682614 -0.16853624582290647 18.500000000000004 0.052998676896095255 10.500000000000002 -0.13847047835588452 0.35050000000000009 -0.0029533625347539778 -0.17938000708818433 0.85500000000000009 17.500000000000004 -0.09698880091309546 -0.12365434691309923 1.5000000000000002 -0.054542165249586098 0.13295607268810275 -0.035718770697712843 0.13314227014780047 2.5000000000000004 20.650000000000002 0.33850000000000013 2.5000000000000004
decision_type=2 2 2 2 2 2 2 2 2 2 2 2 2 2 2 2 2 2 2 2 2 2 2 2 2 2 2 2 2 2 2 2 2 2 2 2 2 2 2 2 2 2 2 2 2 2 2 2 2 2 2 2 2 2 2 2 2 2 2 2 2 2
left_child=1 4 3 18 5 6 44 19 9 10 11 17 -13 -11 -12 22 33 31 23 -7 -6 -8 -10 42 49 26 -20 39 41 -29 -31 52 -25 56 35 -35 37 38 -37 48 -41 -15 -2 -32 -1 46 47 -14 -27 50 -19 -16 53 -3 -39 -46 57 58 59 -9 -61 -62
right_child=2 8 -4 -5 20 7 21 16 15 13 14 12 45 28 51 -17 -18 24 25 -21 -22 -23 -24 32 -26 27 -28 29 -30 30 43 -33 -34 34 -36 36 -38 54 -40 40 -42 -43 -44 -45 55 -47 -48 -49 -50 -51 -52 -53 -54 -55 -56 -57 -58 -59 -60 60 61 -63
leaf_value=0.34647424642242663 0.037513256879777163 -0.10538872118303462 -0.10537954139526687 -0.10537954139526687 0.12723739369561599 -0.10538748473607405 -0.10538872118303461 -0.055657536900477395 0.091565446994283414 -0.10538872118303461 -0.10538872118303461 -0.10538872118303461 -0.044364181693154599 0.31060813498039291 0.12801046070041019 -0.10539091663727607 -0.1053844568609637 0.34504595021442891 0.17396786977520196 0.085140635923448532 -0.10537954139526687 0.40413492850027899 0.46635713493552133 0.27376709461012871 -0.090898165616791496 0.0030020710789384654 0.41276978989070384 0.17716758331248206 0.44730564309499937 0.16667074826682032 0.69999403094524693 0.020953626751101555 0.006173618518360788 0.56849173897026373 0.13079996168858138 0.16311506411174012 0.12669489016465157 0.29502598135567021 0.61686494320437912 -0.031792335591226024 0.18430464782971953 0.1044233656833695 0.12203044346825398 0.28516233030250654 0.085968859708011464 0.11050742830603609 0.4776305123279122 0.3175162280551076 0.12424655007371321 0.45999036736608379 0.0074409340694366281 0.38836715891268725 -0.10476616303658098 0.13274230720518457 0.11823385544944374 0.36216802002326537 0.070955359461601517 0.26153708650312119 0.060837798184256102 0.33999929694821579 0.060643386972070293 0.35351493862995942
leaf_weight=2.636670470237731 28.60504512116313 5.6280203908681852 98.678840272128582 62.879300281405449 209.17828124389052 99.391564100980759 441.12035684287548 5.5199370458722141 93.586227267980576 13.390807136893271 11.789732370525597 179.8540654219687 2.9900718927383423 4.5152926072478285 33.590384364128113 14.22078790143132 6.7391211614012709 1.9875360615551487 32.264713190495968 9.2268915846943838 5.3287542611360541 0.97939332202076812 1.7350226193666447 2.866178583353757 6.7142674736678591 11.562523994594811 6.4884937629103652 33.308011289685965 2.1522523164749137 3.2397928014397612 2.3433727100491524 13.275305710732935 35.684439014643431 3.2322619035840026 109.79707161337137 1.8180050402879739 30.288820743560791 9.3725879490375554 2.7492401003837585 5.1208776086568824 79.314979285001755 46.047913752496243 160.3378074914217 1.7590226680040357 163.40032830834389 68.44169183447957 3.0598931200802326 3.2714918628334981 380.70593690127134 1.4107834994792927 6.0908039771020412 2.6061768978834143 1251.4735650680959 5.7346499785780907 11.360461995005604 2.1239845454692832 66.913376376032829 9.9239599704742414 25.130647607147694 8.6462759003043193 8.7807400673627836 4.0889486446976653
leaf_count=36 373 116 2037 1298 2559 2049 9092 68 1246 276 243 3707 37 54 406 293 139 30 365 115 110 18 21 37 132 150 73 382 26 37 27 220 500 35 1307 20 348 111 32 63 854 550 2088 19 2231 851 37 40 4577 23 95 31 25744 63 133 29 829 115 306 101 107 48
internal_value=-0.00328875 -0.0319783 0.0881174 0.110674 0.0201263 -0.00111653 -0.0497544 0.0707558 -0.0683414 -0.0775756 -0.0843912 -0.0896296 -0.0350275 0.0871693 0.0848069 0.0719328 0.127841 -0.100514 0.128011 -0.0892026 0.121459 -0.10426 0.0983873 0.0951418 0.0475052 0.141458 0.213951 0.136028 0.136083 0.211144 0.365277 -0.102394 0.0260688 0.133122 0.155008 0.200195 0.17878 0.241136 0.436249 0.129622 0.171199 0.122836 0.109235 0.522123 0.093542 0.127707 0.253994 0.144708 0.120673 0.145436 0.0905028 0.146756 -0.10369 0.0147941 0.198155 0.089513 0.104514 0.14068 0.117688 0.170532 0.228562 0.153694
internal_weight=3956.47 3011.31 945.159 846.48 1237.75 1023.24 610.261 412.98 1773.57 1664.02 1597.92 1549.93 257.617 66.1063 47.9863 109.542 304.361 1292.31 783.601 108.618 214.507 442.1 95.3212 227.493 16.2034 556.108 38.7532 517.355 52.7155 40.6502 7.34219 1276.11 38.5506 297.622 168.618 58.8214 55.5891 25.3003 4.56725 476.704 84.4359 50.5632 188.943 4.1024 168.161 77.7631 9.32146 6.26156 392.268 9.48912 8.07834 36.1966 1262.84 11.3627 20.733 165.524 129.004 62.0905 52.1665 27.0359 21.516 12.8697
internal_count=67059 54179 12880 10843 19938 17269 11406 5863 34241 32681 31775 31095 4672 906 680 1560 3699 26423 9545 2164 2669 9110 1267 2998 280 6547 438 6109 630 465 83 26143 537 3560 1986 679 644 296 52 5644 917 604 2461 46 2296 965 114 77 4727 148 125 437 25923 179 244 2260 1574 745 630 324 256 155
is_linear=0
shrinkage=0.1


end of trees

feature_importances:
cart_stage=15
item_category=12
time_since_last_add_sec=5
abandonment_risk_score=5
gru_h_59=5
user_avg_order_value=4
item_bestseller_flag=4
gru_h_63=4
item_margin_pct=3
item_emb_0=3
item_emb_199=3
item_emb_326=3
candidate_fills_bread_gap=3
price_anchor_ratio=3
gru_h_7=3
gru_h_36=3
gru_h_42=3
gru_h_45=3
user_rfm_frequency=2
item_subcategory=2
item_item_pop_dinner=2
rest_rating=2
item_emb_7=2
item_emb_328=2
cart_total_value=2
gru_h_3=2
gru_h_11=2
gru_h_12=2
gru_h_15=2
gru_h_18=2
gru_h_30=2
gru_h_34=2
gru_h_40=2
gru_h_50=2
gru_h_53=2
gru_h_55=2
gru_h_61=2
user_rfm_monetary=1
user_order_count=1
item_price=1
item_prep_time_mins=1
item_popularity_score=1
item_item_pop_lunch=1
item_item_pop_late_night=1
rest_zone=1
rest_avg_prep_time=1
item_emb_6=1
item_emb_14=1
item_emb_17=1
item_emb_36=1
item_emb_59=1
item_emb_86=1
item_emb_90=1
item_emb_97=1
item_emb_105=1
item_emb_119=1
item_emb_121=1
item_emb_129=1
item_emb_152=1
item_emb_155=1
item_emb_211=1
item_emb_253=1
item_emb_263=1
item_emb_273=1
item_emb_278=1
item_emb_283=1
item_emb_314=1
item_emb_324=1
item_emb_338=1
item_emb_343=1
item_emb_372=1
item_emb_373=1
item_emb_378=1
consecutive_rejections=1
profile_veg_day_flag=1
price_anchor_diff=1
dtd_gap=1
seasonal_candidate_boost=1
gru_h_1=1
gru_h_2=1
gru_h_5=1
gru_h_6=1
gru_h_9=1
gru_h_10=1
gru_h_16=1
gru_h_23=1
gru_h_25=1
gru_h_26=1
gru_h_29=1
gru_h_31=1
gru_h_32=1
gru_h_33=1
gru_h_39=1
gru_h_41=1
gru_h_43=1
gru_h_51=1
gru_h_52=1
gru_h_54=1
gru_h_56=1
gru_h_57=1
gru_h_62=1

parameters:
[boosting: gbdt]
[objective: binary]
[metric: auc]
[tree_learner: serial]
[device_type: cpu]
[data_sample_strategy: bagging]
[data: ]
[valid: ]
[num_iterations: 500]
[learning_rate: 0.1]
[num_leaves: 63]
[num_threads: 0]
[seed: 42]
[deterministic: 0]
[force_col_wise: 0]
[force_row_wise: 0]
[histogram_pool_size: -1]
[max_depth: -1]
[min_data_in_leaf: 20]
[min_sum_hessian_in_leaf: 0.001]
[bagging_fraction: 0.8]
[pos_bagging_fraction: 1]
[neg_bagging_fraction: 1]
[bagging_freq: 5]
[bagging_seed: 400]
[bagging_by_query: 0]
[feature_fraction: 0.8]
[feature_fraction_bynode: 1]
[feature_fraction_seed: 30056]
[extra_trees: 0]
[extra_seed: 12879]
[early_stopping_round: 0]
[early_stopping_min_delta: 0]
[first_metric_only: 0]
[max_delta_step: 0]
[lambda_l1: 0]
[lambda_l2: 0]
[linear_lambda: 0]
[min_gain_to_split: 0]
[drop_rate: 0.1]
[max_drop: 50]
[skip_drop: 0.5]
[xgboost_dart_mode: 0]
[uniform_drop: 0]
[drop_seed: 17869]
[top_rate: 0.2]
[other_rate: 0.1]
[min_data_per_group: 100]
[max_cat_threshold: 32]
[cat_l2: 10]
[cat_smooth: 10]
[max_cat_to_onehot: 4]
[top_k: 20]
[monotone_constraints: ]
[monotone_constraints_method: basic]
[monotone_penalty: 0]
[feature_contri: ]
[forcedsplits_filename: ]
[refit_decay_rate: 0.9]
[cegb_tradeoff: 1]
[cegb_penalty_split: 0]
[cegb_penalty_feature_lazy: ]
[cegb_penalty_feature_coupled: ]
[path_smooth: 0]
[interaction_constraints: ]
[verbosity: -1]
[saved_feature_importance_type: 0]
[use_quantized_grad: 0]
[num_grad_quant_bins: 4]
[quant_train_renew_leaf: 0]
[stochastic_rounding: 1]
[linear_tree: 0]
[max_bin: 255]
[max_bin_by_feature: ]
[min_data_in_bin: 3]
[bin_construct_sample_cnt: 200000]
[data_random_seed: 175]
[is_enable_sparse: 1]
[enable_bundle: 1]
[use_missing: 1]
[zero_as_missing: 0]
[feature_pre_filter: 1]
[pre_partition: 0]
[two_round: 0]
[header: 0]
[label_column: ]
[weight_column: ]
[group_column: ]
[ignore_column: ]
[categorical_feature: ]
[forcedbins_filename: ]
[precise_float_parser: 0]
[parser_config_file: ]
[objective_seed: 16083]
[num_class: 1]
[is_unbalance: 0]
[scale_pos_weight: 1]
[sigmoid: 1]
[boost_from_average: 1]
[reg_sqrt: 0]
[alpha: 0.9]
[fair_c: 1]
[poisson_max_delta_step: 0.7]
[tweedie_variance_power: 1.5]
[lambdarank_truncation_level: 30]
[lambdarank_norm: 1]
[label_gain: ]
[lambdarank_position_bias_regularization: 0]
[eval_at: ]
[multi_error_top_k: 1]
[auc_mu_weights: ]
[num_machines: 1]
[local_listen_port: 12400]
[time_out: 120]
[machine_list_filename: ]
[machines: ]
[gpu_platform_id: -1]
[gpu_device_id: -1]
[gpu_use_dp: 0]
[num_gpu: 1]

end of parameters

pandas_categorical:[]
