tree
version=v4
num_class=1
num_tree_per_iteration=1
label_index=0
max_feature_idx=503
objective=lambdarank
feature_names=user_segment user_city user_dietary_preference user_rfm_recency user_rfm_frequency user_rfm_monetary user_order_count user_avg_order_value item_price item_category item_subcategory item_cuisine_tag item_veg_flag item_bestseller_flag item_availability item_margin_pct item_prep_time_mins item_popularity_score item_item_pop_breakfast item_item_pop_lunch item_item_pop_dinner item_item_pop_late_night rest_city rest_zone rest_primary_cuisine rest_price_tier rest_rating rest_avg_prep_time rest_free_delivery_min rest_restaurant_addon_success_rate item_emb_0 item_emb_1 item_emb_2 item_emb_3 item_emb_4 item_emb_5 item_emb_6 item_emb_7 item_emb_8 item_emb_9 item_emb_10 item_emb_11 item_emb_12 item_emb_13 item_emb_14 item_emb_15 item_emb_16 item_emb_17 item_emb_18 item_emb_19 item_emb_20 item_emb_21 item_emb_22 item_emb_23 item_emb_24 item_emb_25 item_emb_26 item_emb_27 item_emb_28 item_emb_29 item_emb_30 item_emb_31 item_emb_32 item_emb_33 item_emb_34 item_emb_35 item_emb_36 item_emb_37 item_emb_38 item_emb_39 item_emb_40 item_emb_41 item_emb_42 item_emb_43 item_emb_44 item_emb_45 item_emb_46 item_emb_47 item_emb_48 item_emb_49 item_emb_50 item_emb_51 item_emb_52 item_emb_53 item_emb_54 item_emb_55 item_emb_56 item_emb_57 item_emb_58 item_emb_59 item_emb_60 item_emb_61 item_emb_62 item_emb_63 item_emb_64 item_emb_65 item_emb_66 item_emb_67 item_emb_68 item_emb_69 item_emb_70 item_emb_71 item_emb_72 item_emb_73 item_emb_74 item_emb_75 item_emb_76 item_emb_77 item_emb_78 item_emb_79 item_emb_80 item_emb_81 item_emb_82 item_emb_83 item_emb_84 item_emb_85 item_emb_86 item_emb_87 item_emb_88 item_emb_89 item_emb_90 item_emb_91 item_emb_92 item_emb_93 item_emb_94 item_emb_95 item_emb_96 item_emb_97 item_emb_98 item_emb_99 item_emb_100 item_emb_101 item_emb_102 item_emb_103 item_emb_104 item_emb_105 item_emb_106 item_emb_107 item_emb_108 item_emb_109 item_emb_110 item_emb_111 item_emb_112 item_emb_113 item_emb_114 item_emb_115 item_emb_116 item_emb_117 item_emb_118 item_emb_119 item_emb_120 item_emb_121 item_emb_122 item_emb_123 item_emb_124 item_emb_125 item_emb_126 item_emb_127 item_emb_128 item_emb_129 item_emb_130 item_emb_131 item_emb_132 item_emb_133 item_emb_134 item_emb_135 item_emb_136 item_emb_137 item_emb_138 item_emb_139 item_emb_140 item_emb_141 item_emb_142 item_emb_143 item_emb_144 item_emb_145 item_emb_146 item_emb_147 item_emb_148 item_emb_149 item_emb_150 item_emb_151 item_emb_152 item_emb_153 item_emb_154 item_emb_155 item_emb_156 item_emb_157 item_emb_158 item_emb_159 item_emb_160 item_emb_161 item_emb_162 item_emb_163 item_emb_164 item_emb_165 item_emb_166 item_emb_167 item_emb_168 item_emb_169 item_emb_170 item_emb_171 item_emb_172 item_emb_173 item_emb_174 item_emb_175 item_emb_176 item_emb_177 item_emb_178 item_emb_179 item_emb_180 item_emb_181 item_emb_182 item_emb_183 item_emb_184 item_emb_185 item_emb_186 item_emb_187 item_emb_188 item_emb_189 item_emb_190 item_emb_191 item_emb_192 item_emb_193 item_emb_194 item_emb_195 item_emb_196 item_emb_197 item_emb_198 item_emb_199 item_emb_200 item_emb_201 item_emb_202 item_emb_203 item_emb_204 item_emb_205 item_emb_206 item_emb_207 item_emb_208 item_emb_209 item_emb_210 item_emb_211 item_emb_212 item_emb_213 item_emb_214 item_emb_215 item_emb_216 item_emb_217 item_emb_218 item_emb_219 item_emb_220 item_emb_221 item_emb_222 item_emb_223 item_emb_224 item_emb_225 item_emb_226 item_emb_227 item_emb_228 item_emb_229 item_emb_230 item_emb_231 item_emb_232 item_emb_233 item_emb_234 item_emb_235 item_emb_236 item_emb_237 item_emb_238 item_emb_239 item_emb_240 item_emb_241 item_emb_242 item_emb_243 item_emb_244 item_emb_245 item_emb_246 item_emb_247 item_emb_248 item_emb_249 item_emb_250 item_emb_251 item_emb_252 item_emb_253 item_emb_254 item_emb_255 item_emb_256 item_emb_257 item_emb_258 item_emb_259 item_emb_260 item_emb_261 item_emb_262 item_emb_263 item_emb_264 item_emb_265 item_emb_266 item_emb_267 item_emb_268 item_emb_269 item_emb_270 item_emb_271 item_emb_272 item_emb_273 item_emb_274 item_emb_275 item_emb_276 item_emb_277 item_emb_278 item_emb_279 item_emb_280 item_emb_281 item_emb_282 item_emb_283 item_emb_284 item_emb_285 item_emb_286 item_emb_287 item_emb_288 item_emb_289 item_emb_290 item_emb_291 item_emb_292 item_emb_293 item_emb_294 item_emb_295 item_emb_296 item_emb_297 item_emb_298 item_emb_299 item_emb_300 item_emb_301 item_emb_302 item_emb_303 item_emb_304 item_emb_305 item_emb_306 item_emb_307 item_emb_308 item_emb_309 item_emb_310 item_emb_311 item_emb_312 item_emb_313 item_emb_314 item_emb_315 item_emb_316 item_emb_317 item_emb_318 item_emb_319 item_emb_320 item_emb_321 item_emb_322 item_emb_323 item_emb_324 item_emb_325 item_emb_326 item_emb_327 item_emb_328 item_emb_329 item_emb_330 item_emb_331 item_emb_332 item_emb_333 item_emb_334 item_emb_335 item_emb_336 item_emb_337 item_emb_338 item_emb_339 item_emb_340 item_emb_341 item_emb_342 item_emb_343 item_emb_344 item_emb_345 item_emb_346 item_emb_347 item_emb_348 item_emb_349 item_emb_350 item_emb_351 item_emb_352 item_emb_353 item_emb_354 item_emb_355 item_emb_356 item_emb_357 item_emb_358 item_emb_359 item_emb_360 item_emb_361 item_emb_362 item_emb_363 item_emb_364 item_emb_365 item_emb_366 item_emb_367 item_emb_368 item_emb_369 item_emb_370 item_emb_371 item_emb_372 item_emb_373 item_emb_374 item_emb_375 item_emb_376 item_emb_377 item_emb_378 item_emb_379 item_emb_380 item_emb_381 item_emb_382 item_emb_383 cart_size cart_total_value cart_stage time_since_last_add_sec consecutive_rejections complement_score peak_hour_mode season_bucket profile_veg_day_flag abandonment_risk_score gap_missing_beverage gap_missing_dessert gap_missing_bread candidate_fills_beverage_gap candidate_fills_dessert_gap candidate_fills_bread_gap price_anchor_ratio price_anchor_diff dtd_gap dtd_closes_gap dtd_overshoot dtd_free_delivery_unlock dtd_nudge_urgency seasonal_bev_weight seasonal_dessert_weight seasonal_candidate_boost gru_h_0 gru_h_1 gru_h_2 gru_h_3 gru_h_4 gru_h_5 gru_h_6 gru_h_7 gru_h_8 gru_h_9 gru_h_10 gru_h_11 gru_h_12 gru_h_13 gru_h_14 gru_h_15 gru_h_16 gru_h_17 gru_h_18 gru_h_19 gru_h_20 gru_h_21 gru_h_22 gru_h_23 gru_h_24 gru_h_25 gru_h_26 gru_h_27 gru_h_28 gru_h_29 gru_h_30 gru_h_31 gru_h_32 gru_h_33 gru_h_34 gru_h_35 gru_h_36 gru_h_37 gru_h_38 gru_h_39 gru_h_40 gru_h_41 gru_h_42 gru_h_43 gru_h_44 gru_h_45 gru_h_46 gru_h_47 gru_h_48 gru_h_49 gru_h_50 gru_h_51 gru_h_52 gru_h_53 gru_h_54 gru_h_55 gru_h_56 gru_h_57 gru_h_58 gru_h_59 gru_h_60 gru_h_61 gru_h_62 gru_h_63
feature_infos=[0:4] [0:9] [0:3] [1:44] [1:29] [150:1499] [1:49] [150:1199] [11:881] [0:8] [0:71] [0:9] [0:1] [0:1] none [5:65] [5:45] [0.10000000000000001:1] [0:0.40000000000000002] [0.29999999999999999:1] [0.29999999999999999:1] [0.10000000000000001:0.59999999999999998] [0:9] [0:4] [0:9] [0:2] [2.6000000000000001:5] [10:50] [0:299] [0.079236082893132803:0.12123613312202849] [-0.15662384033203119:0.078331708908080999] [-0.1018838360905647:0.1362655907869339] [-0.096598461270332295:0.089203566312789903] [-0.065448857843875802:0.1649453192949295] [-0.15849988162517539:0.082726776599884005] [-0.088903121650218894:0.1037198528647422] [-0.0617068260908126:0.1487547159194946] [-0.1342789828777313:0.1010472550988197] [-0.083248831331729806:0.091376304626464802] [-0.1530390381813049:0.094930626451969105] [-0.069019898772239602:0.1387908309698104] [-0.16853030025959009:0.098442316055297796] [-0.1334624290466308:0.075408697128295898] [-0.12997855246067039:0.084208324551582295] [-0.13738688826560971:0.1001139357686042] [-0.1182096302509307:0.1197944432497024] [-0.074804425239562905:0.16967719793319699] [-0.082003325223922702:0.084795340895652702] [-0.11608187109231941:0.13263422250747681] [-0.1734601557254791:0.056758452206850003] [-0.13534790277481079:0.11451352387666699] [-0.1502909511327743:0.1292325407266616] [-0.068623721599578802:0.1130285263061523] [-0.065042205154895699:0.12653298676013941] [-0.1058891490101814:0.13592767715454099] [-0.098829165101051303:0.1645599156618118] [-0.040691696107387501:0.1161535829305648] [-0.089975833892822196:0.1030074208974838] [-0.1451734453439712:0.063166335225105202] [-0.18980149924755091:0.0514430403709411] [-0.074445821344852406:0.1099460422992706] [-0.099139250814914703:0.148756518959999] [-0.1126864328980445:0.14397312700748441] [-0.11577267199754709:0.1009576469659805] [-0.13668400049209589:0.089920192956924397] [-0.1194996684789657:0.074928656220436096] [-0.13258820772171021:0.14230366051197049] [-0.19008378684520719:0.080095306038856506] [-0.072812274098396301:0.1423380374908447] [-0.089919589459896004:0.091893427073955494] [-0.1011683642864227:0.1213095858693122] [-0.15003733336925501:0.096779495477676294] [-0.086613915860652896:0.14375095069408411] [-0.1198169514536857:0.094567716121673501] [-0.079355470836162498:0.14153042435646049] [-0.1082216277718544:0.10447812080383299] [-0.13283945620059959:0.084149338304996393] [-0.094088345766067505:0.1242955476045608] [-0.062645979225635501:0.1175160706043243] [-0.1539735347032547:0.083661146461963598] [-0.1299669593572616:0.090029820799827506] [-0.17819833755493161:0.065311454236507402] [-0.13788494467735291:0.056193497031927102] [-0.089604184031486497:0.12810365855693809] [-0.099667243659496293:0.16780515015125269] [-0.16924674808979029:0.1219788044691085] [-0.18782855570316309:0.054984513670206001] [-0.1452508419752121:0.091357879340648596] [-0.1164833083748817:0.099604062736034393] [-0.069793164730071994:0.14317439496517179] [-0.15398898720741269:0.081739373505115495] [-0.1137367263436317:0.1270938962697982] [-0.098796240985393496:0.087774217128753607] [-0.10537465661764139:0.1622983962297439] [-0.16912055015563959:0.13190238177776331] [-0.14903514087200159:0.1001955792307853] [-0.1477533876895904:0.059770472347736303] [-0.072522796690464006:0.1295663565397262] [-0.1363522410392761:0.1112086772918701] [-0.096006333827972398:0.1326253116130828] [-0.11487337946891781:0.086318925023078905] [-0.091707229614257799:0.1207397133111953] [-0.145396813750267:0.12587350606918329] [-0.085480175912380205:0.13014960289001459] [-0.154083251953125:0.063884936273097895] [-0.15537650883197779:0.1008513644337654] [-0.038819245994090999:0.14313852787017819] [-0.15735793113708491:0.057466968894004801] [-0.14632120728492731:0.10318984091281889] [-0.14151597023010251:0.1730181276798248] [-0.17291200160980219:0.064057655632495797] [-0.1038184612989425:0.12230471521615981] [-0.16135317087173459:0.1130162551999092] [-0.087791375815868294:0.10850907117128369] [-0.1153498962521553:0.079938039183616597] [-0.1157744601368904:0.10414111614227289] [-0.11752037703990929:0.14592155814170829] [-0.11834078282117839:0.1249754652380943] [-0.1004223898053169:0.085842512547969804] [-0.13372053205966949:0.1164914816617965] [-0.1040199920535087:0.13365025818347931] [-0.076848559081554399:0.1114529594779014] [-0.087394326925277696:0.1084180325269699] [-0.10449996590614311:0.14501954615116119] [-0.13898010551929471:0.093533575534820501] [-0.1158308088779449:0.11028106510639191] [-0.11591402441263191:0.10485453903675079] [-0.17636740207672119:0.063712887465953799] [-0.16261951625347129:0.084449425339698694] [-0.048399925231933497:0.1217503920197486] [-0.086936242878437001:0.091488137841224601] [-0.083217270672321306:0.1446520984172821] [-0.14133405685424799:0.18633578717708579] [-0.1433607935905456:0.068298615515232003] [-0.16032508015632629:0.1322241872549057] [-0.087122954428195898:0.11364848911762231] [-0.11303585022687911:0.135211631655693] [-0.12589457631111139:0.10786699503660201] [-0.079190328717231695:0.1736966520547866] [-0.084848508238792406:0.12509573996067039] [-0.1226167306303978:0.1085742339491844] [-0.093795560300350106:0.1201885640621185] [-0.19588483870029449:0.086429849267005907] [-0.17547343671321869:0.087869577109813607] [-0.16032092273235321:0.065690726041793795] [-0.12212545424699781:0.11000779271125791] [-0.071065768599510096:0.18411046266555781] [-0.13066144287586209:0.1321642994880676] [-0.1293034553527832:0.1003258153796196] [-0.12940420210361481:0.1095170304179191] [-0.13239194452762601:0.088231950998306205] [-0.11551033705472941:0.1136256530880928] [-0.1065941751003265:0.13693894445896149] [-0.1046380698680877:0.10875314474105829] [-0.17717774212360379:0.077259860932826996] [-0.12904007732868189:0.10060641169548031] [-0.065621063113212502:0.1332451850175857] [-2.6756885266745078e-33:5.8135704118328001e-33] [-0.13126166164875031:0.080013267695903695] [-0.1291308850049972:0.1414251625537872] [-0.0875703990459442:0.1223885342478752] [-0.094130747020244598:0.15211215615272519] [-0.077804692089557606:0.18100152909755701] [-0.1021400839090347:0.11934623867273331] [-0.11454017460346221:0.086222834885120295] [-0.16805528104305259:0.097627155482768999] [-0.1410575807094574:0.1003104299306869] [-0.14187696576118469:0.1267361044883728] [-0.12778450548648829:0.1037139892578125] [-0.13005442917346949:0.090382605791091905] [-0.16944392025470731:0.045708145946264198] [-0.1013109982013702:0.1109898090362548] [-0.083936400711536394:0.1266772598028183] [-0.1568837016820907:0.088846132159233093] [-0.1099577099084854:0.1033940464258194] [-0.076924212276935494:0.1577155590057373] [-0.083968318998813601:0.14715741574764249] [-0.10300757735967631:0.082415662705898202] [-0.1493881940841674:0.068020053207874298] [-0.10910673439502711:0.19503886997699729] [-0.084818154573440496:0.13627408444881439] [-0.15957382321357719:0.1322624683380127] [-0.12802398204803461:0.076563939452171298] [-0.15992046892642969:0.11171892285346979] [-0.1157435625791549:0.1417272537946701] [-0.19710543751716611:0.054392941296100603] [-0.1470670402050018:0.15320950746536249] [-0.040574725717306102:0.079030901193618705] [-0.069099754095077501:0.19306699931621549] [-0.1001297309994697:0.1301395446062088] [-0.1088405922055244:0.097061291337013203] [-0.085499823093414307:0.089901976287364904] [-0.15233244001865379:0.056226044893264701] [-0.1194958463311195:0.14100289344787589] [-0.16467650234699249:0.059174131602048798] [-0.107561357319355:0.048374641686677898] [-0.1171540766954422:0.094685107469558702] [-0.066910810768604195:0.13960370421409601] [-0.11432475596666331:0.13646930456161499] [-0.12536706030368799:0.1238600686192512] [-0.1336514204740524:0.1300232857465744] [-0.091023549437522805:0.1385437548160553] [-0.14759442210197449:0.056325264275073998] [-0.11053143441677089:0.1443816125392913] [-0.15217466652393341:0.112014353275299] [-0.064172945916652596:0.16408936679363251] [-0.078357465565204606:0.1564453840255737] [-0.089050538837909698:0.14770177006721491] [-0.10632519423961639:0.1098550632596015] [-0.087042585015296894:0.077231802046298897] [-0.15372481942176819:0.1489089280366897] [-0.0734671279788017:0.10840098559856411] [-0.13474597036838529:0.0709130614995956] [-0.1039707958698272:0.095131427049636799] [-0.050508491694927202:0.13709217309951779] [-0.119902066886425:0.1130940690636634] [-0.079079322516918099:0.1204076632857322] [-0.095977641642093603:0.12265112996101379] [-0.1124263256788253:0.11754760891199111] [-0.089316032826900399:0.15320904552936551] [-0.1779653578996658:0.087909869849681799] [-0.1241596415638923:0.094111137092113495] [-0.20087598264217371:0.1093287169933319] [-0.1384749710559845:0.1223519220948219] [-0.14772669970989219:0.066835656762123094] [-0.15418742597103119:0.080465324223041507] [-0.093964539468288394:0.13146847486495969] [-0.1336620897054672:0.080884486436843803] [-0.1137153580784797:0.1174460723996162] [-0.18225179612636561:0.1216556951403617] [-0.1029575318098068:0.16389727592468259] [-0.1281891912221908:0.093502447009086595] [-0.1083154380321502:0.11088034510612479] [-0.10983981192111961:0.074930824339389801] [-0.12159208208322519:0.13167925179004669] [-0.1067138761281967:0.1226996183395385] [-0.1007573381066322:0.14617231488227839] [-0.12543684244155881:0.0949288010597229] [-0.12563815712928769:0.13924239575862879] [-0.12592802941799161:0.11082529276609419] [-0.1024440079927444:0.12640427052974701] [-0.088240563869476304:0.17197474837303159] [-0.13624958693981171:0.060259155929088502] [-0.048751372843980699:0.13601531088352201] [-0.18833743035793299:0.040667124092578798] [-0.1237795874476432:0.1384218484163284] [-0.078471481800079304:0.16755042970180509] [-0.1099845021963119:0.1238309666514396] [-0.19892939925193781:0.0767368003726005] [-0.14199632406234741:0.095236808061599704] [-0.0699899271130561:0.14831146597862241] [-0.1201129034161567:0.14175975322723389] [-0.15866111218929291:0.090340323746204307] [-4.6119492296955481e-33:1.8331125431043237e-33] [-0.12699776887893671:0.1364131867885589] [-0.14229774475097651:0.0726172029972076] [-0.16448479890823359:0.094509094953536904] [-0.020716767758130999:0.2110407799482345] [-0.062157727777957902:0.16595481336116791] [-0.1373559087514877:0.075021117925643893] [-0.1120645180344581:0.1208157688379287] [-0.108082890510559:0.1013459116220474] [-0.16556720435619349:0.142232060432434] [-0.14268161356449119:0.091000899672508198] [-0.12155856192111961:0.1455824077129364] [-0.16822181642055509:0.069255068898200906] [-0.078048966825008295:0.1555012166500091] [-0.1241804286837577:0.12849275767803189] [-0.1109572201967239:0.10010131448507301] [-0.043567579239606802:0.1907297819852829] [-0.097658298909664099:0.18932706117629999] [-0.051477313041686998:0.20045527815818781] [-0.097852297127246801:0.1075527071952819] [-0.1380596905946731:0.12327384203672399] [-0.1494089812040329:0.053758457303047097] [-0.096052572131156894:0.19543065130710599] [-0.1210139021277427:0.1292310506105423] [-0.077009186148643494:0.19799377024173731] [-0.098541811108589103:0.1103254556655883] [-0.050436589866876602:0.14820098876953119] [-0.088982887566089602:0.15499608218669891] [-0.071835808455944006:0.1510370671749115] [-0.19429671764373779:0.1026750430464744] [-0.1162160411477088:0.1054265797138214] [-0.109112948179245:0.16073939204216001] [-0.1946877837181091:0.025404796004295301] [-0.1242702007293701:0.10120751708745949] [-0.17314344644546509:0.097762435674667303] [-0.1158052235841751:0.1077902093529701] [-0.1092270910739898:0.2191037982702255] [-0.1090188324451446:0.1220316439867019] [-0.16282036900520319:0.089247226715087793] [-0.12424171715974799:0.1174234375357627] [-0.091171175241470295:0.13980776071548459] [-0.099884286522865295:0.1137252375483512] [-0.096584498882293701:0.1279767155647277] [-0.084674090147018405:0.12751016020774841] [-0.036357585340738199:0.22540321946144101] [-0.091187663376331302:0.1198690310120582] [-0.13068185746669769:0.071256950497627203] [-0.1453979611396789:0.1187756359577179] [-0.1699750870466232:0.13788384199142451] [-0.13877458870410919:0.081568174064159393] [-0.10082812607288361:0.1689075380563736] [-0.10371819883584971:0.1156281307339668] [-0.17238794267177579:0.095113441348075797] [-0.14636602997779841:0.095097817480564104] [-0.1182128563523292:0.1138674542307853] [-0.11294014006853099:0.13072292506694791] [-0.082506701350212097:0.1239860355854034] [-0.1694736033678054:0.1192341968417167] [-0.1191473826766014:0.0816000625491142] [-0.1780551522970199:0.11820529401302329] [-0.11724956333637231:0.091411776840686798] [-0.1208622828125953:0.095091849565505898] [-0.090868555009364999:0.10651484131813049] [-0.12431053817272179:0.1165505349636077] [-0.13047732412815091:0.12626172602176661] [-0.0713257417082786:0.1651998162269592] [-0.078648105263709994:0.12690749764442441] [-0.13139641284942619:0.161791130900383] [-0.146620437502861:0.103119172155857] [-0.132588505744934:0.1286613047122955] [-0.14830014109611511:0.11359807848930351] [-0.1120069548487663:0.1481991112232208] [-0.1032223850488662:0.1322341114282608] [-0.1308244913816452:0.14244513213634491] [-0.15339893102645871:0.12609364092350001] [-0.1089765653014183:0.13178902864456171] [-0.1175477057695388:0.13113792240619659] [-0.1263363361358642:0.11510492116212841] [-0.13195273280143729:0.12939848005771629] [-0.10375532507896421:0.1533520370721817] [-0.13625790178775779:0.15785917639732361] [-0.1582130938768386:0.0828308016061782] [-0.1269047856330871:0.1282784640789032] [-0.113221138715744:0.098147898912429796] [-0.054527439177036202:0.14106869697570801] [-0.14129465818405151:0.1220252215862274] [-0.15873435139656061:0.12894527614116669] [-0.14820666611194611:0.1458103209733963] [-0.090109497308730996:0.1652208119630813] [-0.066263966262340504:0.15167085826396939] [-0.1017611846327781:0.1155522763729095] [-0.10347374528646459:0.10599230974912641] [-0.083849251270294106:0.1258167028427124] [-0.1398007869720459:0.1746850460767746] [-0.1209647580981254:0.17134480178356171] [-0.0897967293858528:0.16930021345615379] [-3.0941247786131498e-08:-1.3485156102888141e-08] [-0.099961377680301597:0.15598645806312561] [-0.14903891086578369:0.1183747574687004] [-0.1394158452749252:0.1018403396010398] [-0.032356578856706598:0.18236786127090451] [-0.1214319169521331:0.12705878913402549] [-0.1668476313352584:0.091223195195198004] [-0.1179955303668975:0.1014350652694702] [-0.10914748907089231:0.088728658854961395] [-0.084019258618354797:0.13200666010379791] [-0.12835448980331421:0.1593510955572128] [-0.14116369187831879:0.099687300622463199] [-0.035905994474887799:0.1986094713211059] [-0.1141742244362831:0.094835355877876198] [-0.078207217156886999:0.11402285844087599] [-0.14084021747112269:0.1507270485162735] [-0.10862056165933601:0.10268039256334301] [-0.099725887179374695:0.1371347159147262] [-0.072100088000297505:0.15114371478557581] [-0.089626595377922003:0.048397656530141803] [-0.1252110749483108:0.13438205420970911] [-0.093906983733177102:0.14052189886569971] [-0.063656456768512698:0.10921873152256011] [-0.072553016245365101:0.18273800611495969] [-0.14875179529190061:0.088900193572044303] [-0.0991730317473411:0.0954924076795578] [-0.077491454780101707:0.15407782793045041] [-0.12650670111179349:0.087526135146617806] [-0.086460120975971194:0.19230945408344269] [-0.081190444529056494:0.186340257525444] [-0.1078515872359275:0.13125722110271451] [-0.1199013292789459:0.13349595665931699] [-0.095004491508006994:0.1518931835889816] [-0.15904915332794189:0.081348851323127705] [-0.1193385869264602:0.079297706484794603] [-0.16604387760162351:0.15669602155685419] [-0.10285615921020499:0.1067074388265609] [-0.14646521210670471:0.1017196848988533] [-0.088968127965927096:0.1089694797992706] [-0.14565972983837119:0.074873514473438194] [-0.1205255314707756:0.084002479910850497] [-0.16812619566917419:0.095536768436431801] [-0.15739387273788449:0.0575361736118793] [-0.1081712171435356:0.094320036470890004] [-0.092124961316585499:0.0519608184695243] [-0.1883540004491806:0.063475877046585] [-0.14570058882236481:0.11846964061260221] [-0.15701809525489799:0.10708034783601759] [-0.1053390130400657:0.1276695728302002] [-0.128017172217369:0.086493842303752899] [-0.1110170409083366:0.18018035590648651] [-0.14292539656162259:0.079069152474403298] [-0.066681377589702606:0.1123168393969535] [-0.063454255461692796:0.1585502028465271] [-0.059277862310409497:0.1328696608543396] [-0.084191605448722798:0.12338611483573909] [-0.103377029299736:0.11093470454216001] [-0.082833006978034904:0.1055512502789497] [-0.090280875563621493:0.14979609847068781] [-0.2033430188894271:0.14976847171783439] [-0.1046235039830207:0.1146243140101432] [-0.1028718426823616:0.18956086039543149] [-0.12129189819097511:0.13133284449577329] [-0.13602828979492179:0.15848785638809201] [-0.13583163917064661:0.10640537738800041] [1:9] [24:2166] [1:3] [10:164] [0:20] [0:1] [0:3] none [0:1] [0.089999999999999997:0.78400000000000003] [0:1] [0:1] [0:1] [0:1] [0:1] [0:1] [0.0398009950248756:8.7916666666666661] [-818:599] [0:572] [0:1] [0:1] [0:1] [0:0.94799999999999995] none none [-0.20000000000000001:0.29999999999999999] [-0.2012394517660141:0.026348590850830078] [-0.036319844424724579:0.25649160146713257] [-0.043583732098340988:0.2445017546415329] [-0.10812827944755554:0.18890048563480377] [-0.025548908859491348:0.22225850820541382] [-0.098693057894706726:0.09530184417963028] [-0.30153888463973999:-0.0087091587483882904] [-0.29586511850357056:0.042617473751306534] [-0.25546014308929443:0.0055049844086170197] [-0.1485985666513443:0.27088308334350586] [-0.02803141251206398:0.18721334636211395] [-0.29004663228988647:-0.039469107985496521] [-0.21640999615192413:-0.0097503811120986938] [-0.18913346529006958:0.07494199275970459] [-0.032004129141569138:0.21017211675643921] [0.016535211354494095:0.330436110496521] [-0.18878208100795746:0.081782720983028412] [-0.25221952795982361:-0.027324818074703217] [-0.034631721675395966:0.20933349430561066] [-0.2239859402179718:0.14764901995658875] [-0.052754703909158707:0.2238580584526062] [-0.020428437739610672:0.2509675920009613] [-0.27555277943611145:-0.043667946010828018] [-0.21421858668327332:0.08748723566532135] [-0.30423867702484131:-0.02663186751306057] [-0.10078593343496323:0.11769100278615952] [-0.13897907733917236:0.014166079461574554] [-0.071838714182376862:0.20014090836048126] [-0.11163383722305298:0.12196402251720428] [-0.20585739612579346:0.19408296048641205] [0.093541145324707031:0.4307856559753418] [-0.21221901476383209:0.17060033977031708] [-0.067800551652908325:0.23485490679740906] [-0.17310239374637604:0.1002950593829155] [-0.023325175046920776:0.23885700106620789] [0.09650382399559021:0.41009265184402466] [-0.0052587017416954041:0.3138890266418457] [-0.17637613415718079:0.070028103888034821] [0.029870150610804558:0.26007243990898132] [-0.20205900073051453:0.088452637195587158] [0.0011868865694850683:0.30394446849822998] [-0.13723507523536682:0.078291147947311401] [-0.12153929471969604:0.13801488280296326] [-0.12880074977874756:0.17840710282325745] [-0.21789634227752686:0.060284145176410675] [-0.091685876250267029:0.1875876784324646] [-0.11415956169366837:0.16109129786491394] [-0.34890392422676086:-0.015050956979393959] [-0.28246867656707764:0.0057909712195396423] [-0.13565987348556519:0.15580198168754578] [-0.21749208867549896:0.0092325173318386078] [-0.17558269202709198:0.035616155713796616] [-0.17379021644592285:0.14572572708129883] [-0.10879084467887878:0.19294166564941406] [-0.054305654019117355:0.16018566489219666] [-0.2392486035823822:0.038976091891527176] [-0.10433937609195709:0.058917790651321411] [-0.10132285952568054:0.13395383954048157] [-0.040086094290018082:0.19769735634326935] [-0.018360916525125504:0.18780815601348877] [-0.015381084755063057:0.2138192355632782] [-0.026543483138084412:0.18394312262535095] [-0.31063956022262573:0.19681172072887421] [-0.097800418734550476:0.14223042130470276]
tree_sizes=3539

Tree=0
num_leaves=31
num_cat=0
split_feature=414 418 414 418 8 7 13 417 418 243 413 4 168 303 87 341 108 469 445 441 94 7 331 72 237 259 43 477 185 332
split_gain=1938.3 370.842 218.952 421.034 129.273 58.5919 38.4928 29.8179 58.2395 28.0085 21.7818 16.9102 18.9228 15.9894 14.3276 19.4078 13.9068 13.8787 16.5963 13.6836 13.4236 13.0219 17.4942 15.0495 12.9157 12.653 12.1585 12.6446 12.0615 11.9685
threshold=1.5000000000000002 3.5000000000000004 2.5000000000000004 1.0000000180025095e-35 206.50000000000003 299.50000000000006 1.0000000180025095e-35 64.500000000000014 10.500000000000002 0.12384241819381712 0.053475389257073354 10.500000000000002 -0.030757843516766997 0.042137376964092206 -0.073550038039684226 0.059339324012398657 -0.0028132990701123495 -0.065974075347185121 0.013030732050538065 0.11029800772666933 -0.016846859827637596 287.50000000000006 -0.085116740316152531 -0.011524583213031249 0.0624180510640144 -0.068127110600471483 0.0045064636506140015 -0.05764926224946975 -0.11743608862161634 -0.0032993407221510495
decision_type=2 2 2 2 2 2 2 2 2 2 2 2 2 2 2 2 2 2 2 2 2 2 2 2 2 2 2 2 2 2
left_child=1 4 3 -2 6 11 9 -5 -9 10 14 26 -13 -12 -1 19 -14 -11 -19 21 -21 22 -16 -23 28 -7 27 -6 -8 -24
right_child=2 -3 -4 7 5 25 24 8 -10 17 13 12 16 -15 15 -17 -18 18 -20 20 -22 23 29 -25 -26 -27 -28 -29 -30 -31
leaf_value=0.01811028180084211 0.024296116823252938 0.041206801222885302 -0.039259299727013523 -0.033195658251879527 -0.043143742393650111 0.010756566727504534 -0.0032130354403203695 0.027646352418902769 -0.03628817059584704 0.016981005959970784 -0.0012300881889345957 -0.00978007794851001 -0.023395855966590266 0.015429970802176467 -0.031363426216623712 0.002086812712321774 -0.049119726455952348 -0.04653184927889057 0.0040390557871755692 -0.00023593454915368065 0.010197322861629884 -0.0031754032722729432 0.0258617168088053 0.012292491612878223 -0.05160297033660232 -0.00089863171615118306 -0.029870860158927724 0.0077414486166619157 0.019714713988438895 0.01439555099738167
leaf_weight=214.00078737270087 170.88700675184373 333.93084812222514 850.37822966941167 425.76298309268896 4.8792848857119671 114.32787586096674 21.584484592080116 22.225472967373207 30.3108128644526 7.8032711716368786 247.28411854477599 59.097278428496793 57.603668841067702 65.601089554606006 6.3587434645742169 246.86033688066527 28.161674271803349 16.583100473042581 9.0159162827767414 149.57255246513523 430.22332371515222 63.128876686329022 134.04881054023281 548.3084129539784 2.3615144807845345 314.24446491198614 13.062122565926982 44.286411178763956 477.01305524259806 210.72811406198889
leaf_count=1840 3712 7179 14338 6937 75 1097 230 358 481 71 2669 737 839 577 82 2627 505 280 93 1590 3971 693 1007 5036 44 3485 181 468 3979 1878
internal_value=-0.000340279 0.0110056 -0.0292434 -0.0161234 0.00811268 -0.00412077 0.0108408 -0.0305644 -0.00924067 0.009231 0.00962435 -0.0172234 -0.022842 0.00226294 0.0107741 0.00989669 -0.0318425 -0.0180442 -0.0287209 0.0111467 0.00750581 0.0133397 0.0179442 0.0106955 0.0183907 0.00221056 -0.00414359 0.00269152 0.0187222 0.0188536
internal_weight=5319.63 3820.07 1499.56 649.186 3486.14 635.663 2850.48 478.299 52.5363 2349.52 2316.12 207.09 144.863 312.885 2003.23 1789.23 85.7653 33.4023 25.599 1542.37 579.796 962.573 351.136 611.437 500.959 428.572 62.2278 49.1657 498.598 344.777
internal_count=67059 41233 25826 11488 34054 7387 26667 7776 839 22414 21970 2805 2081 3246 18724 16884 1344 444 373 14257 5561 8696 2967 5729 4253 4582 724 543 4209 2885
is_linear=0
shrinkage=0.03


end of trees

feature_importances:
consecutive_rejections=3
user_avg_order_value=2
cart_size=2
user_rfm_frequency=1
item_price=1
item_bestseller_flag=1
item_emb_13=1
item_emb_42=1
item_emb_57=1
item_emb_64=1
item_emb_78=1
item_emb_138=1
item_emb_155=1
item_emb_207=1
item_emb_213=1
item_emb_229=1
item_emb_273=1
item_emb_301=1
item_emb_302=1
item_emb_311=1
item_emb_383=1
time_since_last_add_sec=1
gru_h_1=1
gru_h_5=1
gru_h_29=1
gru_h_37=1

parameters:
[boosting: gbdt]
[objective: lambdarank]
[metric: ndcg]
[tree_learner: serial]
[device_type: cpu]
[data_sample_strategy: bagging]
[data: ]
[valid: ]
[num_iterations: 500]
[learning_rate: 0.03]
[num_leaves: 31]
[num_threads: 0]
[seed: 42]
[deterministic: 0]
[force_col_wise: 0]
[force_row_wise: 0]
[histogram_pool_size: -1]
[max_depth: -1]
[min_data_in_leaf: 20]
[min_sum_hessian_in_leaf: 0.001]
[bagging_fraction: 0.8]
[pos_bagging_fraction: 1]
[neg_bagging_fraction: 1]
[bagging_freq: 5]
[bagging_seed: 400]
[bagging_by_query: 0]
[feature_fraction: 0.8]
[feature_fraction_bynode: 1]
[feature_fraction_seed: 30056]
[extra_trees: 0]
[extra_seed: 12879]
[early_stopping_round: 0]
[early_stopping_min_delta: 0]
[first_metric_only: 0]
[max_delta_step: 0]
[lambda_l1: 0]
[lambda_l2: 0]
[linear_lambda: 0]
[min_gain_to_split: 0]
[drop_rate: 0.1]
[max_drop: 50]
[skip_drop: 0.5]
[xgboost_dart_mode: 0]
[uniform_drop: 0]
[drop_seed: 17869]
[top_rate: 0.2]
[other_rate: 0.1]
[min_data_per_group: 100]
[max_cat_threshold: 32]
[cat_l2: 10]
[cat_smooth: 10]
[max_cat_to_onehot: 4]
[top_k: 20]
[monotone_constraints: ]
[monotone_constraints_method: basic]
[monotone_penalty: 0]
[feature_contri: ]
[forcedsplits_filename: ]
[refit_decay_rate: 0.9]
[cegb_tradeoff: 1]
[cegb_penalty_split: 0]
[cegb_penalty_feature_lazy: ]
[cegb_penalty_feature_coupled: ]
[path_smooth: 0]
[interaction_constraints: ]
[verbosity: -1]
[saved_feature_importance_type: 0]
[use_quantized_grad: 0]
[num_grad_quant_bins: 4]
[quant_train_renew_leaf: 0]
[stochastic_rounding: 1]
[linear_tree: 0]
[max_bin: 255]
[max_bin_by_feature: ]
[min_data_in_bin: 3]
[bin_construct_sample_cnt: 200000]
[data_random_seed: 175]
[is_enable_sparse: 1]
[enable_bundle: 1]
[use_missing: 1]
[zero_as_missing: 0]
[feature_pre_filter: 1]
[pre_partition: 0]
[two_round: 0]
[header: 0]
[label_column: ]
[weight_column: ]
[group_column: ]
[ignore_column: ]
[categorical_feature: ]
[forcedbins_filename: ]
[precise_float_parser: 0]
[parser_config_file: ]
[objective_seed: 16083]
[num_class: 1]
[is_unbalance: 0]
[scale_pos_weight: 1]
[sigmoid: 1]
[boost_from_average: 1]
[reg_sqrt: 0]
[alpha: 0.9]
[fair_c: 1]
[poisson_max_delta_step: 0.7]
[tweedie_variance_power: 1.5]
[lambdarank_truncation_level: 30]
[lambdarank_norm: 1]
[label_gain: ]
[lambdarank_position_bias_regularization: 0]
[eval_at: 8]
[multi_error_top_k: 1]
[auc_mu_weights: ]
[num_machines: 1]
[local_listen_port: 12400]
[time_out: 120]
[machine_list_filename: ]
[machines: ]
[gpu_platform_id: -1]
[gpu_device_id: -1]
[gpu_use_dp: 0]
[num_gpu: 1]

end of parameters

pandas_categorical:[]
